{"learner":{"attributes":{"best_iteration":"99","best_ntree_limit":"100","scikit_learn":"{\"use_label_encoder\": true, \"n_estimators\": 100, \"objective\": \"binary:logistic\", \"max_depth\": null, \"learning_rate\": null, \"verbosity\": null, \"booster\": null, \"tree_method\": null, \"gamma\": null, \"min_child_weight\": null, \"max_delta_step\": null, \"subsample\": null, \"colsample_bytree\": null, \"colsample_bylevel\": null, \"colsample_bynode\": null, \"reg_alpha\": null, \"reg_lambda\": null, \"scale_pos_weight\": null, \"base_score\": null, \"missing\": NaN, \"num_parallel_tree\": null, \"random_state\": null, \"n_jobs\": null, \"monotone_constraints\": null, \"interaction_constraints\": null, \"importance_type\": null, \"gpu_id\": null, \"validate_parameters\": null, \"predictor\": null, \"enable_categorical\": false, \"kwargs\": {\"params\": {\"colsample_bytree\": 0.5, \"gamma\": 1, \"learning_rate\": 0.1, \"max_depth\": 7, \"reg_lambda\": 10, \"scale_pos_weight\": 1, \"subsample\": 0.8}}, \"classes_\": [0, 1], \"n_classes_\": 2, \"_le\": {\"classes_\": [0, 1]}, \"_estimator_type\": \"classifier\"}"},"feature_names":["release_pos_x","release_pos_z","release_speed","pfx_x","pfx_z","plate_x","plate_z","vx0","vy0","vz0","ax","ay","az","effective_speed","release_spin_rate","release_extension","release_pos_y","pitch_number","spin_axis","pitch_name_4-Seam Fastball","pitch_name_Changeup","pitch_name_Curveball","pitch_name_Cutter","pitch_name_Eephus","pitch_name_Fastball","pitch_name_Knuckle Curve","pitch_name_Knuckleball","pitch_name_Sinker","pitch_name_Slider","pitch_name_Split-Finger","balls_0","balls_1","balls_2","balls_3","strikes_0","strikes_1","strikes_2","outs_when_up_0","outs_when_up_1","outs_when_up_2","zone_1","zone_2","zone_3","zone_4","zone_6","zone_7","zone_8","zone_9","zone_11","zone_12","zone_13","zone_14","p_throws_L","p_throws_R","stand_L","stand_R"],"feature_types":["float","float","float","float","float","float","float","float","float","float","float","float","float","float","int","float","float","int","int","int","int","int","int","int","int","int","int","int","int","int","int","int","int","int","int","int","int","int","int","int","int","int","int","int","int","int","int","int","int","int","int","int","int","int","int","int"],"gradient_booster":{"model":{"gbtree_model_param":{"num_trees":"100","size_leaf_vector":"0"},"tree_info":[0,0,0,0,0,0,0,0,0,0,0,0,0,0,0,0,0,0,0,0,0,0,0,0,0,0,0,0,0,0,0,0,0,0,0,0,0,0,0,0,0,0,0,0,0,0,0,0,0,0,0,0,0,0,0,0,0,0,0,0,0,0,0,0,0,0,0,0,0,0,0,0,0,0,0,0,0,0,0,0,0,0,0,0,0,0,0,0,0,0,0,0,0,0,0,0,0,0,0,0],"trees":[{"base_weights":[2.1965833E-1,-1.2492276E0,4.5045537E-1,-1.3640764E0,2.9981378E-1,7.31955E-1,-1.2301131E0,-1.4662925E0,1.3867822E-1,-4.1191068E-1,4.6312177E-1,9.7926265E-1,-7.8786856E-1,-6.6846275E-1,-1.6796345E0,-1.5768383E0,-1.7142858E-1,-7.131783E-1,2.763819E-1,2.5E-1,-5.6880736E-1,9.287926E-2,6.775068E-1,-7.997474E-1,1.2985888E0,-2.3801443E-1,-1.1505986E0,-9.119702E-1,7.167814E-1,-1.7469426E0,-7.97153E-1,-1.7732008E0,-1.376938E0,-7.448015E-1,1.7391304E-2,-1.1475409E0,-3.1428573E-1,3.9882267E-1,-4.3037975E-1,4.1095892E-1,-9.0909094E-1,-7.3913044E-1,3.272727E-1,3.4101382E-1,-4.074074E-1,8.7402797E-1,4.017094E-1,-1.2059578E0,-2.7580512E-1,3.9844346E-1,1.4172502E0,8.866426E-2,-1.140008E0,-9.3789583E-1,-1.7562028E0,-1.7174112E0,-7.0473963E-1,9.4405043E-1,2.5E-1,-1.4529124E0,-1.8529412E0,-3.2605043E-1,-1.3170732E0,-1.8672296E0,-1.6588441E0,-1.2604303E0,-1.6987805E0,-1.2151898E0,-5.3866667E-1,2.180896E-1,-5.336427E-1,-1.3663366E0,-8E-2,-5.614035E-1,6.666667E-1,-2.8169014E-2,6.420323E-1,-1.2E0,-0E0,-6.666667E-1,5.846154E-1,-2.6923078E-1,-1E0,1.3333334E0,-4E-1,5.816733E-1,1.0695187E-2,-1.125E0,-1.02564104E-1,1.1619048E0,7.276888E-1,5.9302324E-1,-1.25E-1,-5.773776E-1,-1.3097527E0,-7.038047E-2,-1.0698142E0,6.5112436E-1,-9.3170947E-1,1.5109786E0,7.933525E-1,-1.0688074E0,2.5524187E-1,-1.6098981E0,-9.605263E-1,-6.6042316E-1,-1.2692547E0,-1.7600648E0,1.8181819E-1,-1.8695652E0,-1.4945055E0,-4.1325897E-1,-1.6024845E0,1.1435643E0,5.892473E-1,-1.980198E-1,4.600939E-1,-1.8723404E0,-1.3348609E0,-1.758215E0,-1.9319354E0,-7.978142E-1,-1.15384616E-1,-4E-1,-1.4322034E0],"categories":[],"categories_nodes":[],"categories_segments":[],"categories_sizes":[],"default_left":[true,true,true,true,true,true,true,true,true,true,true,true,true,true,true,true,true,true,true,true,true,true,true,true,true,true,true,true,true,true,true,true,true,true,true,true,true,true,true,true,false,true,true,true,true,true,true,true,true,true,true,true,true,true,true,true,true,true,true,true,true,true,true,false,false,false,false,false,false,false,false,false,false,false,false,false,false,false,false,false,false,false,false,false,false,false,false,false,false,false,false,false,false,false,false,false,false,false,false,false,false,false,false,false,false,false,false,false,false,false,false,false,false,false,false,false,false,false,false,false,false,false,false,false,false],"id":0,"left_children":[1,3,5,7,9,11,13,15,17,19,21,23,25,27,29,31,33,35,37,39,41,43,45,47,49,51,53,55,57,59,61,63,65,67,69,71,73,75,77,79,-1,81,83,85,87,89,91,93,95,97,99,101,103,105,107,109,111,113,115,117,119,121,123,-1,-1,-1,-1,-1,-1,-1,-1,-1,-1,-1,-1,-1,-1,-1,-1,-1,-1,-1,-1,-1,-1,-1,-1,-1,-1,-1,-1,-1,-1,-1,-1,-1,-1,-1,-1,-1,-1,-1,-1,-1,-1,-1,-1,-1,-1,-1,-1,-1,-1,-1,-1,-1,-1,-1,-1,-1,-1,-1,-1,-1,-1],"loss_changes":[1.9393805E4,1.3823779E3,2.338888E4,1.1110801E3,6.260643E1,1.5916918E4,1.7897373E3,9.690137E2,5.433281E1,1.06052475E1,3.4643562E1,2.0690535E4,1.1818081E3,1.0648898E3,2.325918E2,2.4244824E2,5.7798973E1,1.0814873E1,3.4613144E1,4.104919E0,1.271884E1,2.0187286E1,1.464875E1,1.1793882E3,3.2975625E3,6.946196E2,4.5831445E2,4.467395E2,4.986261E1,1.1135449E2,6.839752E1,3.0706055E1,1.1394971E2,1.21688385E1,4.4629494E1,7.014683E0,8.858646E0,3.5300617E1,1.9625317E1,3.8049881E0,0E0,8.188965E0,1.0593939E1,8.618912E0,1.1697294E1,5.9265137E0,1.1863844E1,2.029336E2,3.9497476E2,1.2098256E3,1.5941094E3,3.3407315E2,5.1311707E1,2.4232788E2,7.258301E0,1.5808838E1,5.5834143E2,2.1783691E1,1.4774799E1,4.5739746E1,1.6702148E1,1.4691388E1,1.3496033E1,0E0,0E0,0E0,0E0,0E0,0E0,0E0,0E0,0E0,0E0,0E0,0E0,0E0,0E0,0E0,0E0,0E0,0E0,0E0,0E0,0E0,0E0,0E0,0E0,0E0,0E0,0E0,0E0,0E0,0E0,0E0,0E0,0E0,0E0,0E0,0E0,0E0,0E0,0E0,0E0,0E0,0E0,0E0,0E0,0E0,0E0,0E0,0E0,0E0,0E0,0E0,0E0,0E0,0E0,0E0,0E0,0E0,0E0,0E0,0E0,0E0,0E0],"parents":[2147483647,0,0,1,1,2,2,3,3,4,4,5,5,6,6,7,7,8,8,9,9,10,10,11,11,12,12,13,13,14,14,15,15,16,16,17,17,18,18,19,19,20,20,21,21,22,22,23,23,24,24,25,25,26,26,27,27,28,28,29,29,30,30,31,31,32,32,33,33,34,34,35,35,36,36,37,37,38,38,39,39,41,41,42,42,43,43,44,44,45,45,46,46,47,47,48,48,49,49,50,50,51,51,52,52,53,53,54,54,55,55,56,56,57,57,58,58,59,59,60,60,61,61,62,62],"right_children":[2,4,6,8,10,12,14,16,18,20,22,24,26,28,30,32,34,36,38,40,42,44,46,48,50,52,54,56,58,60,62,64,66,68,70,72,74,76,78,80,-1,82,84,86,88,90,92,94,96,98,100,102,104,106,108,110,112,114,116,118,120,122,124,-1,-1,-1,-1,-1,-1,-1,-1,-1,-1,-1,-1,-1,-1,-1,-1,-1,-1,-1,-1,-1,-1,-1,-1,-1,-1,-1,-1,-1,-1,-1,-1,-1,-1,-1,-1,-1,-1,-1,-1,-1,-1,-1,-1,-1,-1,-1,-1,-1,-1,-1,-1,-1,-1,-1,-1,-1,-1,-1,-1,-1,-1],"split_conditions":[1.505E0,5E-1,3.3449998E0,5E-1,1.375E0,8.95E-1,3.5149999E0,5E-1,1.355E0,5.4449997E0,5E-1,-8.95E-1,9.75E-1,5E-1,5E-1,1.365E0,1.395E0,5E-1,5E-1,1.5836653E1,1.335E0,5E-1,5.975E0,-9.85E-1,1.625E0,5E-1,5E-1,-7.75E-1,3.4450002E0,3.585E0,3.6149998E0,1.295E0,6.75E-1,1.315E0,6.75E-1,1.345E0,2.5E0,-6.340164E-1,-2.5755112E1,1.8955E3,-2.7272728E-1,-2.7146057E1,9.22E1,5E-1,1.435E0,-2.105E0,5.7998705E0,-2.565E0,2.9250002E0,5E-1,7.65E-1,1.705E0,1.935E0,1.045E0,2.106245E1,-9.05E-1,6.95E-1,2.7791195E1,5.835E0,-7.1500003E-1,3.6950002E0,5E-1,2.269104E1,-5.601689E-1,-4.9765325E-1,-3.7812912E-1,-5.096342E-1,-3.6455697E-1,-1.6160001E-1,6.542688E-2,-1.6009282E-1,-4.09901E-1,-2.4E-2,-1.6842106E-1,2.0000002E-1,-8.450705E-3,1.9260971E-1,-3.6E-1,-0E0,-2.0000002E-1,1.7538463E-1,-8.076924E-2,-3E-1,4.0000004E-1,-1.20000005E-1,1.74502E-1,3.2085564E-3,-3.375E-1,-3.0769233E-2,3.4857145E-1,2.1830665E-1,1.7790698E-1,-3.75E-2,-1.7321329E-1,-3.9292583E-1,-2.1114143E-2,-3.2094428E-1,1.9533731E-1,-2.7951285E-1,4.532936E-1,2.3800576E-1,-3.2064223E-1,7.657257E-2,-4.8296943E-1,-2.881579E-1,-1.9812696E-1,-3.8077644E-1,-5.280195E-1,5.454546E-2,-5.608696E-1,-4.4835168E-1,-1.239777E-1,-4.8074535E-1,3.4306931E-1,1.7677419E-1,-5.940594E-2,1.3802817E-1,-5.6170213E-1,-4.004583E-1,-5.274645E-1,-5.7958066E-1,-2.3934427E-1,-3.4615386E-2,-1.20000005E-1,-4.2966104E-1],"split_indices":[6,46,6,45,6,5,6,47,6,1,34,5,5,41,41,6,6,34,36,10,4,30,1,5,6,54,54,5,6,6,6,6,5,6,5,6,17,7,12,14,0,12,2,31,6,0,7,0,6,51,5,6,6,5,10,5,5,11,1,5,6,34,11,0,0,0,0,0,0,0,0,0,0,0,0,0,0,0,0,0,0,0,0,0,0,0,0,0,0,0,0,0,0,0,0,0,0,0,0,0,0,0,0,0,0,0,0,0,0,0,0,0,0,0,0,0,0,0,0,0,0,0,0,0,0],"split_type":[0,0,0,0,0,0,0,0,0,0,0,0,0,0,0,0,0,0,0,0,0,0,0,0,0,0,0,0,0,0,0,0,0,0,0,0,0,0,0,0,0,0,0,0,0,0,0,0,0,0,0,0,0,0,0,0,0,0,0,0,0,0,0,0,0,0,0,0,0,0,0,0,0,0,0,0,0,0,0,0,0,0,0,0,0,0,0,0,0,0,0,0,0,0,0,0,0,0,0,0,0,0,0,0,0,0,0,0,0,0,0,0,0,0,0,0,0,0,0,0,0,0,0,0,0],"sum_hessian":[5.720375E4,7.767E3,4.943675E4,7.231E3,5.36E2,4.23445E4,7.09225E3,6.7705E3,4.605E2,9.975E1,4.3625E2,3.641875E4,5.92575E3,3.154E3,3.93825E3,6.23775E3,5.3275E2,6.35E1,3.97E2,1.9E1,8.075E1,1.605E2,2.7575E2,5.542E3,3.087675E4,2.356E3,3.56975E3,2.68275E3,4.7125E2,3.65825E3,2.8E2,3.14275E3,3.095E3,1.3125E2,4.015E2,2.95E1,3.4E1,3.3875E2,5.825E1,1.725E1,1.75E0,6.8E1,1.275E1,1.075E2,5.3E1,1.5975E2,1.16E2,3.121E3,2.421E3,3.59675E3,2.728E4,1.73025E3,6.2575E2,2.64375E3,9.26E2,5.475E2,2.13525E3,3.1625E2,1.55E2,9.7325E2,2.685E3,1.4775E2,1.3225E2,1.71625E3,1.4265E3,2.276E3,8.19E2,3.85E1,9.275E1,2.9475E2,1.0675E2,2.425E1,5.25E0,2.75E1,6.5E0,1.2325E2,2.155E2,2.025E1,3.8E1,2E0,1.525E1,2.5E1,4.3E1,5E0,7.75E0,6.175E1,4.575E1,1.5E1,3.8E1,5.15E1,1.0825E2,8.5E1,3.1E1,4.4325E2,2.67775E3,1.92425E3,4.9675E2,3.023E3,5.7375E2,2.371575E4,3.56425E3,2.17E2,1.51325E3,1.7075E2,4.55E2,1.4405E3,1.20325E3,9.2425E2,1.75E0,3.21E2,2.265E2,1.613E3,5.2225E2,2.01E2,1.1525E2,4.95E1,1.055E2,2.105E2,7.6275E2,1.2315E3,1.4535E3,4.475E1,1.03E2,1.525E1,1.17E2],"tree_param":{"num_deleted":"0","num_feature":"56","num_nodes":"125","size_leaf_vector":"0"}},{"base_weights":[1.6043593E-1,-9.015613E-1,3.3452764E-1,-1.1765895E0,-5.090588E-1,5.7203424E-1,-8.091247E-1,-1.2201635E0,-1.02848984E-1,-2.5136247E-1,-9.8037124E-1,7.5508827E-1,-5.838627E-1,-3.6871827E-1,-1.2226778E0,-1.2532312E0,-2.7801618E-1,-5.216149E-1,1.19323306E-1,2.300474E-1,-9.0256584E-1,-7.1407175E-1,-1.2198787E0,-3.965138E-1,1.0400072E0,-2.4121185E-1,-8.92974E-1,-5.848743E-1,7.5067925E-1,-1.2875863E0,-4.73894E-1,-1.2864243E0,-4.7403532E-1,-1.0230811E0,-4.934987E-2,-2.1143712E-1,-8.073183E-1,5.892269E-1,-1.2564442E-1,-6.261478E-2,4.2407984E-1,-1.4280635E0,-7.707758E-1,-9.618114E-1,-5.1398367E-1,-1.1066451E0,-1.4723303E0,-7.693654E-1,5.7969853E-2,4.67245E-1,1.1755657E0,-1.5116877E-2,-8.9594865E-1,-7.360625E-1,-1.3655651E0,-1.3521302E0,-3.6359057E-1,9.778883E-1,4.9655655E-1,-1.0349734E0,-1.4080355E0,-2.1492667E-1,-1.0878235E0,-1.427928E0,-1.1946877E0,-1.9695635E-1,-7.4212086E-1,-1.179968E0,-3.109483E-1,-3.9367267E-1,2.2155695E-1,-4.2391106E-1,8.288334E-1,-1.0168841E0,-6.6774845E-2,-3.3406234E-1,7.494142E-1,2.7911407E-1,-4.900593E-1,8.150101E-2,-4.6876106E-1,5.045517E-1,-8.905818E-2,2.2900923E-1,-1.4432126E0,-9.607122E-1,-5.874154E-1,-9.959183E-1,-2.9434696E-2,-3.2011256E-1,-9.212553E-1,-9.669554E-1,-1.4468323E0,-1.4821798E0,-3.485356E-1,-1.0545675E0,-5.3898406E-1,2.0527273E-1,-7.2276443E-1,6.498711E-1,-7.274437E-1,1.2893003E0,6.638952E-1,-4.7258785E-1,2.3788331E-1,-1.108479E0,-5.7874006E-1,-1.2313275E0,-5.633157E-1,-2.9631179E-2,-1.3723656E0,-1.4151936E0,-1.0092181E0,-1.5853833E-2,-1.1363337E0,6.3713086E-1,1.1124649E0,7.8973395E-1,2.8344584E-1,-1.1302706E0,-5.1747715E-1,-1.4339086E0,-1.0980643E0,-3.309528E-1,5.0876474E-1,4.4154906E-1,-1.138986E0],"categories":[],"categories_nodes":[],"categories_segments":[],"categories_sizes":[],"default_left":[true,true,true,true,true,true,true,true,true,true,true,true,true,true,true,true,true,true,true,true,true,true,true,true,true,true,true,true,true,true,true,true,true,true,true,true,true,true,true,true,true,true,true,true,true,true,true,true,true,true,true,true,true,true,true,true,true,true,true,true,true,true,true,false,false,false,false,false,false,false,false,false,false,false,false,false,false,false,false,false,false,false,false,false,false,false,false,false,false,false,false,false,false,false,false,false,false,false,false,false,false,false,false,false,false,false,false,false,false,false,false,false,false,false,false,false,false,false,false,false,false,false,false,false,false,false,false],"id":1,"left_children":[1,3,5,7,9,11,13,15,17,19,21,23,25,27,29,31,33,35,37,39,41,43,45,47,49,51,53,55,57,59,61,63,65,67,69,71,73,75,77,79,81,83,85,87,89,91,93,95,97,99,101,103,105,107,109,111,113,115,117,119,121,123,125,-1,-1,-1,-1,-1,-1,-1,-1,-1,-1,-1,-1,-1,-1,-1,-1,-1,-1,-1,-1,-1,-1,-1,-1,-1,-1,-1,-1,-1,-1,-1,-1,-1,-1,-1,-1,-1,-1,-1,-1,-1,-1,-1,-1,-1,-1,-1,-1,-1,-1,-1,-1,-1,-1,-1,-1,-1,-1,-1,-1,-1,-1,-1,-1],"loss_changes":[1.0167814E4,8.3553613E2,1.2834502E4,2.129248E2,3.8756415E2,8.27889E3,1.4794502E3,1.3598193E2,1.6686062E1,6.4778723E2,7.109607E1,1.1082822E4,5.6638586E2,9.529095E2,2.0303662E2,1.0872363E2,2.5448025E1,5.3344975E0,1.3605954E1,6.751489E1,5.9719543E1,2.6109985E1,1.5312134E1,1.1353718E3,2.1018066E3,3.7576224E2,2.0751904E2,5.597644E2,3.6325043E1,1.1584619E2,5.3158165E1,5.0918945E1,1.280125E1,3.5541496E0,1.0867394E1,7.2342744E0,4.8954716E0,6.2341833E0,1.1655994E1,2.7822384E1,2.956073E1,4.7213745E0,2.3963898E1,7.5598907E0,2.3317894E1,1.823471E1,1.4811707E0,2.4126245E2,3.4750012E2,1.1314633E3,1.273291E3,2.1861842E2,4.3284668E1,1.801062E2,6.3167725E0,1.453772E1,6.885718E2,1.4679321E1,1.8705826E1,6.098584E1,1.9339355E1,2.0105507E1,8.279427E0,0E0,0E0,0E0,0E0,0E0,0E0,0E0,0E0,0E0,0E0,0E0,0E0,0E0,0E0,0E0,0E0,0E0,0E0,0E0,0E0,0E0,0E0,0E0,0E0,0E0,0E0,0E0,0E0,0E0,0E0,0E0,0E0,0E0,0E0,0E0,0E0,0E0,0E0,0E0,0E0,0E0,0E0,0E0,0E0,0E0,0E0,0E0,0E0,0E0,0E0,0E0,0E0,0E0,0E0,0E0,0E0,0E0,0E0,0E0,0E0,0E0,0E0,0E0,0E0],"parents":[2147483647,0,0,1,1,2,2,3,3,4,4,5,5,6,6,7,7,8,8,9,9,10,10,11,11,12,12,13,13,14,14,15,15,16,16,17,17,18,18,19,19,20,20,21,21,22,22,23,23,24,24,25,25,26,26,27,27,28,28,29,29,30,30,31,31,32,32,33,33,34,34,35,35,36,36,37,37,38,38,39,39,40,40,41,41,42,42,43,43,44,44,45,45,46,46,47,47,48,48,49,49,50,50,51,51,52,52,53,53,54,54,55,55,56,56,57,57,58,58,59,59,60,60,61,61,62,62],"right_children":[2,4,6,8,10,12,14,16,18,20,22,24,26,28,30,32,34,36,38,40,42,44,46,48,50,52,54,56,58,60,62,64,66,68,70,72,74,76,78,80,82,84,86,88,90,92,94,96,98,100,102,104,106,108,110,112,114,116,118,120,122,124,126,-1,-1,-1,-1,-1,-1,-1,-1,-1,-1,-1,-1,-1,-1,-1,-1,-1,-1,-1,-1,-1,-1,-1,-1,-1,-1,-1,-1,-1,-1,-1,-1,-1,-1,-1,-1,-1,-1,-1,-1,-1,-1,-1,-1,-1,-1,-1,-1,-1,-1,-1,-1,-1,-1,-1,-1,-1,-1,-1,-1,-1,-1,-1,-1],"split_conditions":[1.515E0,1.415E0,3.275E0,5E-1,5E-1,9.05E-1,3.4850001E0,5E-1,1.345E0,5E-1,6.35E-1,-8.35E-1,9.95E-1,5E-1,5E-1,5E-1,-6.65E-1,2.5988297E1,5.675E0,5E-1,-9.25E-1,5E-1,9.75E-1,-9.55E-1,1.695E0,5E-1,5E-1,-7.55E-1,3.375E0,3.5749998E0,3.645E0,1.295E0,5.15E-1,-1.40316105E1,5E-1,1.02E0,6.1899996E0,2.025E3,5E-1,4.35E-1,5.85E-1,4.505E0,2.7388206E0,1.615E0,2.185E2,5E-1,9.8873585E-1,-1.035E0,2.955E0,5E-1,7.45E-1,-1.775E0,-1.415E0,-2.045E0,-9.28204E0,5E-1,5E-1,5E-1,-2.3293327E1,5E-1,5E-1,6.455E0,4.75E1,-4.283784E-1,-3.5840634E-1,-5.9086908E-2,-2.2263627E-1,-3.539904E-1,-9.3284495E-2,-1.18101805E-1,6.6467084E-2,-1.2717332E-1,2.4865003E-1,-3.0506524E-1,-2.0032454E-2,-1.00218706E-1,2.2482426E-1,8.373422E-2,-1.4701779E-1,2.4450304E-2,-1.4062832E-1,1.5136552E-1,-2.6717456E-2,6.870277E-2,-4.3296382E-1,-2.8821367E-1,-1.7622462E-1,-2.987755E-1,-8.8304095E-3,-9.6033774E-2,-2.763766E-1,-2.9008663E-1,-4.340497E-1,-4.4465396E-1,-1.0456068E-1,-3.1637025E-1,-1.6169523E-1,6.1581824E-2,-2.1682934E-1,1.9496134E-1,-2.1823312E-1,3.8679013E-1,1.9916856E-1,-1.4177637E-1,7.1365E-2,-3.3254373E-1,-1.7362203E-1,-3.6939827E-1,-1.6899471E-1,-8.889354E-3,-4.117097E-1,-4.2455807E-1,-3.0276543E-1,-4.7561503E-3,-3.4090012E-1,1.9113927E-1,3.337395E-1,2.369202E-1,8.503375E-2,-3.390812E-1,-1.5524316E-1,-4.301726E-1,-3.294193E-1,-9.928584E-2,1.5262944E-1,1.3246472E-1,-3.4169582E-1],"split_indices":[6,6,6,46,51,5,6,45,6,50,5,5,5,41,41,47,5,11,1,34,5,34,5,5,6,54,54,5,6,6,6,6,5,12,34,4,1,14,30,5,5,1,7,4,18,54,9,5,6,51,5,0,0,0,7,40,49,34,12,40,40,1,18,0,0,0,0,0,0,0,0,0,0,0,0,0,0,0,0,0,0,0,0,0,0,0,0,0,0,0,0,0,0,0,0,0,0,0,0,0,0,0,0,0,0,0,0,0,0,0,0,0,0,0,0,0,0,0,0,0,0,0,0,0,0,0,0],"split_type":[0,0,0,0,0,0,0,0,0,0,0,0,0,0,0,0,0,0,0,0,0,0,0,0,0,0,0,0,0,0,0,0,0,0,0,0,0,0,0,0,0,0,0,0,0,0,0,0,0,0,0,0,0,0,0,0,0,0,0,0,0,0,0,0,0,0,0,0,0,0,0,0,0,0,0,0,0,0,0,0,0,0,0,0,0,0,0,0,0,0,0,0,0,0,0,0,0,0,0,0,0,0,0,0,0,0,0,0,0,0,0,0,0,0,0,0,0,0,0,0,0,0,0,0,0,0,0],"sum_hessian":[5.4992742E4,7.744631E3,4.724811E4,4.5526045E3,3.1920264E3,3.9123652E4,8.1244575E3,4.374927E3,1.776774E2,2.0646729E3,1.1273538E3,3.377518E4,5.3484717E3,3.9354053E3,4.1890522E3,4.2262627E3,1.4866444E2,6.1122196E1,1.1655519E2,1.1874689E3,8.7720386E2,5.3570483E2,5.916489E2,6.6988765E3,2.7076305E4,2.5374648E3,2.811007E3,3.2988699E3,6.3653534E2,3.8542278E3,3.3482455E2,4.052959E3,1.7330353E2,3.409579E1,1.1456866E2,3.014017E1,3.0982029E1,3.945885E1,7.7096344E1,4.7368286E2,7.13786E2,1.7391235E2,7.032915E2,2.3765038E2,2.9805444E2,4.121628E2,1.794861E2,3.6795422E3,3.0193342E3,5.182717E3,2.1893588E4,1.8869E3,6.505648E2,2.1122478E3,6.987593E2,7.373051E2,2.5615647E3,3.3455994E2,3.019754E2,1.2474974E3,2.6067302E3,2.3643977E2,9.838478E1,1.5883553E3,2.4646035E3,8.6075325E1,8.7228195E1,2.7402016E1,6.693775E0,5.0248985E1,6.431967E1,2.5520199E1,4.619969E0,2.3857464E1,7.124564E0,5.673341E0,3.378551E1,3.6637196E1,4.045915E1,3.5021344E2,1.23469406E2,6.170371E2,9.67489E1,1.4476342E0,1.7246472E2,3.433687E2,3.5992282E2,2.2919803E2,8.452348E0,2.0314061E2,9.4913826E1,2.9490823E2,1.1725458E2,1.7761053E2,1.8755579E0,1.6425541E3,2.036988E3,2.54071E3,4.7862433E2,4.4959062E3,6.868108E2,1.7910832E4,3.9827566E3,6.7161975E2,1.2152803E3,3.8806564E2,2.6249918E2,5.446394E2,1.5676084E3,3.5661457E0,6.951932E2,6.201325E2,1.1717262E2,1.7672965E3,7.9426825E2,9.634416E1,2.3821576E2,1.259709E2,1.7600452E2,1.0524956E3,1.9500182E2,2.4025645E3,2.041659E2,2.0423793E2,3.220184E1,2.9377546E0,9.544703E1],"tree_param":{"num_deleted":"0","num_feature":"56","num_nodes":"127","size_leaf_vector":"0"}},{"base_weights":[1.2336692E-1,-6.524854E-1,2.7012077E-1,-9.304448E-1,-3.3324978E-1,4.809451E-1,-5.713947E-1,-9.7297835E-1,-5.7115305E-2,-4.5760438E-1,3.7542182E-1,6.534193E-1,-2.9521003E-1,-3.2261732E-1,-1.1198418E0,-1.1308929E0,-8.0763644E-1,2.809896E-1,-2.500256E-1,-5.950745E-1,3.0536002E-1,5.2123654E-1,1.1433794E-1,-2.0475316E-1,9.343427E-1,-1.05410725E-1,-8.884666E-1,-1.0529472E0,-1.1714616E-1,-1.1628026E0,-5.7874537E-1,-1.0677935E0,-1.2981509E0,-7.155229E-1,-1.1894807E0,-5.621529E-1,3.6733714E-1,1.778462E-2,-4.8122996E-1,-7.6292163E-1,1.22717405E-2,6.765157E-1,1.6291198E-1,4.5166117E-1,9.4203264E-1,-2.732319E-1,3.3326066E-1,-7.073827E-1,2.5439799E-2,4.953967E-1,1.0512309E0,3.2561803E-1,-4.158532E-1,-1.0728133E0,-6.5167224E-1,-7.1350914E-1,-1.1752881E0,1.5023415E-1,-1.007871E0,-1.0380306E0,-1.2622105E0,-2.0613505E-4,-7.5819147E-1,-1.2144494E0,-9.5850116E-1,-1.3165791E0,-7.564107E-1,-7.6692396E-1,-1.0346496E-1,-5.7457304E-1,-1.2252789E0,-1.2195708E0,-4.2913172E-2,6.182901E-1,1.4462997E-1,2.1732092E-1,-6.7108047E-1,-3.014157E-2,-7.1300125E-1,-9.4904435E-1,-5.951884E-1,2.1428144E-1,-4.4795465E-1,7.846284E-1,7.250575E-3,-3.078872E-1,2.9108888E-1,5.776772E-1,1.6471447E-1,1.0215522E0,-2.6547733E-1,-1.2053995E-1,-1.009364E0,-8.0439486E-2,6.927375E-1,-3.797111E-1,-8.930432E-1,-3.8415346E-1,2.935188E-1,5.7337296E-1,-1.0253298E0,1.1386673E0,7.2979915E-1,-3.89978E-1,4.872602E-1,-7.2267854E-1,-2.0327415E-1,-1.3867238E0,-9.7263366E-1,-4.3474752E-1,-1.0046574E0,-1.2646475E0,-6.033504E-1,-1.3440999E0,-1.0858495E0,2.9808992E-1,-6.2248194E-1,-5.507337E-1,-1.1996635E0,-1.2699227E0,-9.3569994E-1,9.299982E-1,-1.2657136E0,-7.312454E-1,4.51371E-1,-2.7733827E-1,-8.6942744E-1],"categories":[],"categories_nodes":[],"categories_segments":[],"categories_sizes":[],"default_left":[true,true,true,true,true,true,true,true,true,true,true,true,true,true,true,true,true,true,true,true,true,true,true,true,true,true,true,true,true,true,true,true,true,true,true,true,true,true,true,true,true,true,true,true,true,true,true,true,true,true,true,true,true,true,true,true,true,true,true,true,true,true,true,false,false,false,false,false,false,false,false,false,false,false,false,false,false,false,false,false,false,false,false,false,false,false,false,false,false,false,false,false,false,false,false,false,false,false,false,false,false,false,false,false,false,false,false,false,false,false,false,false,false,false,false,false,false,false,false,false,false,false,false,false,false,false,false],"id":2,"left_children":[1,3,5,7,9,11,13,15,17,19,21,23,25,27,29,31,33,35,37,39,41,43,45,47,49,51,53,55,57,59,61,63,65,67,69,71,73,75,77,79,81,83,85,87,89,91,93,95,97,99,101,103,105,107,109,111,113,115,117,119,121,123,125,-1,-1,-1,-1,-1,-1,-1,-1,-1,-1,-1,-1,-1,-1,-1,-1,-1,-1,-1,-1,-1,-1,-1,-1,-1,-1,-1,-1,-1,-1,-1,-1,-1,-1,-1,-1,-1,-1,-1,-1,-1,-1,-1,-1,-1,-1,-1,-1,-1,-1,-1,-1,-1,-1,-1,-1,-1,-1,-1,-1,-1,-1,-1,-1],"loss_changes":[5.7986143E3,7.185161E2,7.598203E3,1.6077954E2,3.325885E2,4.584758E3,1.1703394E3,1.0688599E2,1.3254863E1,3.3679865E2,2.139814E1,6.755492E3,7.011005E2,8.858643E2,6.1558594E1,2.0874756E1,7.021289E1,5.5871596E0,8.010767E0,2.772647E2,2.5830238E1,1.0154533E1,1.7337685E1,7.996704E2,1.0826133E3,6.315908E2,6.518347E1,5.2990356E1,1.0978229E3,2.9439941E1,2.0649689E1,2.3473755E1,4.725952E0,5.1209045E1,7.906372E0,2.4262545E0,3.6912374E0,8.508883E0,7.233635E0,6.595911E1,5.4936626E1,9.817547E0,2.1565392E1,1.1187588E1,5.1060295E0,8.187183E0,1.9439934E1,1.3173572E2,5.207252E2,5.2724036E2,4.6768555E2,2.287962E2,1.7880997E2,2.5289124E1,5.0345093E1,2.0241241E1,1.2903076E1,4.0528326E2,9.2645874E1,2.503247E1,1.1738281E1,1.6205458E1,7.879303E0,0E0,0E0,0E0,0E0,0E0,0E0,0E0,0E0,0E0,0E0,0E0,0E0,0E0,0E0,0E0,0E0,0E0,0E0,0E0,0E0,0E0,0E0,0E0,0E0,0E0,0E0,0E0,0E0,0E0,0E0,0E0,0E0,0E0,0E0,0E0,0E0,0E0,0E0,0E0,0E0,0E0,0E0,0E0,0E0,0E0,0E0,0E0,0E0,0E0,0E0,0E0,0E0,0E0,0E0,0E0,0E0,0E0,0E0,0E0,0E0,0E0,0E0,0E0,0E0],"parents":[2147483647,0,0,1,1,2,2,3,3,4,4,5,5,6,6,7,7,8,8,9,9,10,10,11,11,12,12,13,13,14,14,15,15,16,16,17,17,18,18,19,19,20,20,21,21,22,22,23,23,24,24,25,25,26,26,27,27,28,28,29,29,30,30,31,31,32,32,33,33,34,34,35,35,36,36,37,37,38,38,39,39,40,40,41,41,42,42,43,43,44,44,45,45,46,46,47,47,48,48,49,49,50,50,51,51,52,52,53,53,54,54,55,55,56,56,57,57,58,58,59,59,60,60,61,61,62,62],"right_children":[2,4,6,8,10,12,14,16,18,20,22,24,26,28,30,32,34,36,38,40,42,44,46,48,50,52,54,56,58,60,62,64,66,68,70,72,74,76,78,80,82,84,86,88,90,92,94,96,98,100,102,104,106,108,110,112,114,116,118,120,122,124,126,-1,-1,-1,-1,-1,-1,-1,-1,-1,-1,-1,-1,-1,-1,-1,-1,-1,-1,-1,-1,-1,-1,-1,-1,-1,-1,-1,-1,-1,-1,-1,-1,-1,-1,-1,-1,-1,-1,-1,-1,-1,-1,-1,-1,-1,-1,-1,-1,-1,-1,-1,-1,-1,-1,-1,-1,-1,-1,-1,-1,-1,-1,-1,-1],"split_conditions":[1.545E0,1.425E0,3.2150002E0,5E-1,5E-1,8.55E-1,3.5549998E0,1.335E0,5.685E0,5E-1,6.0550003E0,-8.05E-1,5E-1,-6.85E-1,5E-1,5.75E-1,7.1500003E-1,1.275E0,5E-1,5E-1,5.625E0,5E-1,5E-1,-1.005E0,1.715E0,9.55E-1,-1.495E0,5E-1,6.75E-1,3.665E0,8.8350006E1,1.255E0,5E-1,5E-1,-5.803365E0,5E-1,-2.4999999E-2,5E-1,8.375E1,5E-1,5E-1,5E-1,-2.950248E1,2.8127306E1,2.45E-1,-3.798677E0,-4.038541E0,-1.945E0,5E-1,5E-1,6.95E-1,1.805E0,-1.625E0,1.875E0,9.95E-1,-8.05E-1,-9.85E-1,5E-1,5E-1,-5.65E-1,6.4899994E1,5.895E0,3.585E0,-3.6433482E-1,-2.8755036E-1,-3.9497375E-1,-2.2692323E-1,-2.3007719E-1,-3.103949E-2,-1.7237192E-1,-3.6758366E-1,-3.6587125E-1,-1.2873952E-2,1.8548705E-1,4.3388993E-2,6.5196276E-2,-2.0132415E-1,-9.042472E-3,-2.1390039E-1,-2.8471333E-1,-1.7855652E-1,6.428444E-2,-1.343864E-1,2.3538853E-1,2.1751726E-3,-9.236616E-2,8.732667E-2,1.7330316E-1,4.9414344E-2,3.064657E-1,-7.9643205E-2,-3.6161985E-2,-3.028092E-1,-2.4131848E-2,2.0782126E-1,-1.13913335E-1,-2.6791298E-1,-1.1524604E-1,8.805565E-2,1.720119E-1,-3.0759895E-1,3.416002E-1,2.1893975E-1,-1.16993405E-1,1.4617807E-1,-2.1680357E-1,-6.0982246E-2,-4.1601714E-1,-2.917901E-1,-1.3042426E-1,-3.0139723E-1,-3.7939426E-1,-1.8100512E-1,-4.0322998E-1,-3.2575488E-1,8.942698E-2,-1.8674459E-1,-1.6522011E-1,-3.5989907E-1,-3.8097683E-1,-2.8070998E-1,2.7899948E-1,-3.797141E-1,-2.1937363E-1,1.354113E-1,-8.320148E-2,-2.6082826E-1],"split_indices":[6,6,6,46,46,5,6,6,1,45,1,5,54,5,41,5,5,6,30,47,1,32,34,5,6,5,0,48,5,6,2,6,47,45,7,34,5,36,2,34,54,36,12,11,5,9,10,0,54,50,5,6,0,6,5,5,5,48,49,5,2,1,6,0,0,0,0,0,0,0,0,0,0,0,0,0,0,0,0,0,0,0,0,0,0,0,0,0,0,0,0,0,0,0,0,0,0,0,0,0,0,0,0,0,0,0,0,0,0,0,0,0,0,0,0,0,0,0,0,0,0,0,0,0,0,0,0],"split_type":[0,0,0,0,0,0,0,0,0,0,0,0,0,0,0,0,0,0,0,0,0,0,0,0,0,0,0,0,0,0,0,0,0,0,0,0,0,0,0,0,0,0,0,0,0,0,0,0,0,0,0,0,0,0,0,0,0,0,0,0,0,0,0,0,0,0,0,0,0,0,0,0,0,0,0,0,0,0,0,0,0,0,0,0,0,0,0,0,0,0,0,0,0,0,0,0,0,0,0,0,0,0,0,0,0,0,0,0,0,0,0,0,0,0,0,0,0,0,0,0,0,0,0,0,0,0,0],"sum_hessian":[5.0925344E4,8.0998643E3,4.282548E4,4.3288267E3,3.7710376E3,3.4246223E4,8.579256E3,4.127683E3,2.0114377E2,3.2083965E3,5.6264105E2,2.8019904E4,6.226319E3,5.9031553E3,2.676101E3,2.1082751E3,2.0194078E3,7.2906815E1,1.2823695E2,2.7187542E3,4.896422E2,3.6037567E2,2.0226535E2,6.910324E3,2.110958E4,4.718058E3,1.5082606E3,1.2952334E3,4.607922E3,2.478194E3,1.9790695E2,1.536139E3,5.721361E2,1.6292517E3,3.9015604E2,6.2609816E0,6.6645836E1,5.984267E1,6.839429E1,2.1298809E3,5.888733E2,1.3476248E2,3.5487973E2,3.1102368E2,4.9352E1,7.292121E1,1.2934415E2,2.1700083E3,4.740316E3,4.440305E3,1.6669275E4,1.975357E3,2.742701E3,8.4606244E2,6.621982E2,3.4496152E2,9.502719E2,3.5446963E3,1.0632256E3,1.1039777E3,1.3742164E3,4.7089676E1,1.5081728E2,6.516279E2,8.845111E2,5.5193097E2,2.0205162E1,1.5027931E3,1.2645871E2,2.2402243E1,3.6775378E2,2.1676822E0,4.0932994E0,3.0500607E1,3.6145226E1,4.6932697E1,1.2909977E1,2.3597446E1,4.479684E1,1.00738873E3,1.1224922E3,4.096137E2,1.792596E2,1.1587219E2,1.8890293E1,7.564188E1,2.7923785E2,2.1541048E2,9.5613205E1,4.6447258E1,2.9047427E0,6.1357834E1,1.1563379E1,6.0497482E1,6.8846664E1,7.8594403E2,1.3840641E3,1.8750409E3,2.8652751E3,4.224323E3,2.1598198E2,1.3102552E4,3.5667244E3,3.6372412E2,1.6116329E3,1.121536E3,1.621165E3,2.0157852E2,6.444839E2,4.1152798E2,2.5067023E2,5.571782E1,2.8924368E2,3.2424487E2,6.2602704E2,2.9758877E3,5.6880865E2,3.1538266E2,7.478429E2,3.3451706E2,7.694606E2,1.770511E0,1.3724459E3,1.7744513E1,2.9345163E1,2.8990362E1,1.2182691E2],"tree_param":{"num_deleted":"0","num_feature":"56","num_nodes":"127","size_leaf_vector":"0"}},{"base_weights":[9.638108E-2,-2.4082072E-1,3.2551798E-1,-1.0985793E-1,-7.3247564E-1,-3.8837165E-1,4.3257463E-1,-6.5972024E-1,9.7694725E-2,-8.24256E-1,1.0072602E-1,-7.6957947E-1,-1.9646505E-1,5.3853434E-1,-5.950478E-1,-7.385997E-1,8.111154E-2,2.7330583E-1,-4.5911375E-1,-9.180231E-1,-3.647631E-1,5.6904674E-1,-3.3606297E-1,-9.9555296E-1,-6.262603E-1,-1.0942626E-1,-8.8551867E-1,-2.1743405E-1,6.3598824E-1,-3.795082E-1,-9.560851E-1,-8.218208E-1,-4.988814E-2,3.886865E-1,-1.07801974E-1,-3.6145437E-1,6.1058885E-1,-3.2586944E-1,-8.543263E-1,-1.0545094E0,-4.187228E-1,1.7095867E-1,-6.7532855E-1,8.890231E-1,2.4474494E-1,2.2848184E-1,-5.5912584E-1,-1.0396519E0,-6.26121E-1,-5.1994276E-1,-1.0127275E0,3.2146543E-2,-4.3735206E-1,-5.680571E-1,-1.1030957E0,-6.1091952E-2,-7.395028E-1,7.9220706E-1,-9.252466E-3,-9.387004E-1,-2.6770577E-1,-7.9828584E-1,-1.0818685E0,-9.1901284E-1,-2.3712735E-1,-3.585634E-1,1.9306424E-1,-6.2083844E-2,6.2831914E-1,-2.3141396E-1,5.226293E-1,-6.0737735E-1,-8.019505E-2,2.1461836E-1,7.587395E-1,-1.7093928E-1,-7.349537E-1,-9.075415E-1,-2.85618E-1,-9.388466E-1,-1.1717031E0,-7.822145E-1,-2.0759837E-3,4.436793E-1,-3.7812537E-1,-4.3622163E-1,-9.28357E-1,-2.8057206E-1,1.0008719E0,-1.8957227E-1,5.8455116E-1,1.0911878E0,7.4522786E-2,-3.9286155E-1,-9.3278974E-1,-6.203554E-1,-1.0577925E0,-8.082654E-1,3.474195E-1,-1.1308672E0,-4.6261004E-1,-1.0622122E0,-1.8990712E-1,2.6165634E-1,-3.3793056E-1,-9.632455E-1,-3.171554E-1,1.0792933E0,-6.137847E-1,-1.1138095E0,1.933293E-1,2.649648E-1,-3.7421155E-1,-9.344463E-1,-3.7559643E-1,3.937155E-1,8.740503E-1,1.5177491E-1,-6.1731935E-1,1.0653636E0,-9.532406E-1,-9.6746266E-2,-8.754913E-1,-1.0972822E0,-6.799017E-1,2.5318858E-1,-1.090331E0],"categories":[],"categories_nodes":[],"categories_segments":[],"categories_sizes":[],"default_left":[true,true,true,true,true,true,true,true,true,true,true,true,true,true,true,true,true,true,true,true,true,true,true,true,true,true,true,true,true,true,true,true,true,true,true,true,true,true,true,true,true,true,true,true,true,true,true,true,true,true,true,true,true,true,true,true,true,true,true,true,true,true,true,false,false,false,false,false,false,false,false,false,false,false,false,false,false,false,false,false,false,false,false,false,false,false,false,false,false,false,false,false,false,false,false,false,false,false,false,false,false,false,false,false,false,false,false,false,false,false,false,false,false,false,false,false,false,false,false,false,false,false,false,false,false,false,false],"id":3,"left_children":[1,3,5,7,9,11,13,15,17,19,21,23,25,27,29,31,33,35,37,39,41,43,45,47,49,51,53,55,57,59,61,63,65,67,69,71,73,75,77,79,81,83,85,87,89,91,93,95,97,99,101,103,105,107,109,111,113,115,117,119,121,123,125,-1,-1,-1,-1,-1,-1,-1,-1,-1,-1,-1,-1,-1,-1,-1,-1,-1,-1,-1,-1,-1,-1,-1,-1,-1,-1,-1,-1,-1,-1,-1,-1,-1,-1,-1,-1,-1,-1,-1,-1,-1,-1,-1,-1,-1,-1,-1,-1,-1,-1,-1,-1,-1,-1,-1,-1,-1,-1,-1,-1,-1,-1,-1,-1],"loss_changes":[3.6157488E3,1.2190332E3,2.1296248E3,1.7065051E3,3.0462207E2,2.6569946E2,2.6386152E3,2.3950208E2,1.0616296E3,1.5422705E2,8.120388E1,3.8774475E1,1.4495169E2,1.618377E3,1.7591876E2,2.1221399E2,2.3004738E1,1.7672626E3,1.3680902E2,2.0254956E2,1.0154642E2,1.9653355E1,2.6012028E1,7.012909E0,3.0169739E1,9.975497E1,1.8098526E1,2.0474426E2,1.961291E3,8.85343E1,1.5931702E1,1.8753906E2,3.0089918E1,1.630548E1,1.926078E1,1.9808255E2,3.1603796E2,1.23369125E2,1.9586853E1,3.0599365E1,9.709221E1,3.3789223E1,2.2955856E1,1.28405E1,1.4350159E1,7.745042E0,8.8048935E0,2.528839E0,9.622185E0,2.0070572E1,6.3181763E0,1.2762129E2,4.0648796E1,9.122246E0,2.4347382E0,1.9733571E2,4.066165E1,5.1054688E2,3.715445E2,7.8990784E0,1.2303537E2,1.2674042E1,5.563843E0,0E0,0E0,0E0,0E0,0E0,0E0,0E0,0E0,0E0,0E0,0E0,0E0,0E0,0E0,0E0,0E0,0E0,0E0,0E0,0E0,0E0,0E0,0E0,0E0,0E0,0E0,0E0,0E0,0E0,0E0,0E0,0E0,0E0,0E0,0E0,0E0,0E0,0E0,0E0,0E0,0E0,0E0,0E0,0E0,0E0,0E0,0E0,0E0,0E0,0E0,0E0,0E0,0E0,0E0,0E0,0E0,0E0,0E0,0E0,0E0,0E0,0E0,0E0,0E0],"parents":[2147483647,0,0,1,1,2,2,3,3,4,4,5,5,6,6,7,7,8,8,9,9,10,10,11,11,12,12,13,13,14,14,15,15,16,16,17,17,18,18,19,19,20,20,21,21,22,22,23,23,24,24,25,25,26,26,27,27,28,28,29,29,30,30,31,31,32,32,33,33,34,34,35,35,36,36,37,37,38,38,39,39,40,40,41,41,42,42,43,43,44,44,45,45,46,46,47,47,48,48,49,49,50,50,51,51,52,52,53,53,54,54,55,55,56,56,57,57,58,58,59,59,60,60,61,61,62,62],"right_children":[2,4,6,8,10,12,14,16,18,20,22,24,26,28,30,32,34,36,38,40,42,44,46,48,50,52,54,56,58,60,62,64,66,68,70,72,74,76,78,80,82,84,86,88,90,92,94,96,98,100,102,104,106,108,110,112,114,116,118,120,122,124,126,-1,-1,-1,-1,-1,-1,-1,-1,-1,-1,-1,-1,-1,-1,-1,-1,-1,-1,-1,-1,-1,-1,-1,-1,-1,-1,-1,-1,-1,-1,-1,-1,-1,-1,-1,-1,-1,-1,-1,-1,-1,-1,-1,-1,-1,-1,-1,-1,-1,-1,-1,-1,-1,-1,-1,-1,-1,-1,-1,-1,-1,-1,-1,-1],"split_conditions":[5E-1,3.125E0,1.525E0,1.595E0,5E-1,1.365E0,3.4250002E0,5E-1,8.45E-1,5E-1,3.3649998E0,1.275E0,8.05E-1,-9.15E-1,3.605E0,5E-1,5.7349997E0,-7.75E-1,1.035E0,5E-1,5.25E-1,-2.5672272E1,2.4296013E1,2.5E0,5.85E-1,5E-1,9.15E-1,2.895E0,8.35E-1,-6.85E-1,3.6950002E0,5E-1,7.05E-1,1.475E0,5E-1,-9.35E-1,1.765E0,5E-1,2.525E0,-1.8974842E1,-5.95E-1,3.4250002E0,1.075E0,7.5149994E1,-1.6E0,-7.9499996E-1,3.585E0,5.075E0,2.045E0,-8.65E-1,5E-1,5E-1,-9.05E-1,5.05E0,1.645E0,-1.695E0,-9.75E-1,-7.25E-1,5E-1,1.5880526E1,5.65E-1,-5.05E-1,7.11E1,-2.7570388E-1,-7.113821E-2,-1.07569024E-1,5.7919275E-2,-1.8625153E-2,1.8849576E-1,-6.942419E-2,1.567888E-1,-1.8221322E-1,-2.4058515E-2,6.438551E-2,2.2762185E-1,-5.1281787E-2,-2.2048612E-1,-2.7226245E-1,-8.56854E-2,-2.81654E-1,-3.5151094E-1,-2.3466437E-1,-6.2279514E-4,1.331038E-1,-1.13437615E-1,-1.308665E-1,-2.785071E-1,-8.417162E-2,3.002616E-1,-5.6871686E-2,1.7536536E-1,3.2735637E-1,2.2356836E-2,-1.1785847E-1,-2.7983692E-1,-1.8610664E-1,-3.1733778E-1,-2.4247962E-1,1.0422585E-1,-3.392602E-1,-1.3878302E-1,-3.186637E-1,-5.697214E-2,7.84969E-2,-1.0137917E-1,-2.8897366E-1,-9.514662E-2,3.23788E-1,-1.841354E-1,-3.3414286E-1,5.7998795E-2,7.948944E-2,-1.1226347E-1,-2.803339E-1,-1.1267894E-1,1.1811466E-1,2.622151E-1,4.5532476E-2,-1.851958E-1,3.196091E-1,-2.8597218E-1,-2.902388E-2,-2.6264742E-1,-3.2918465E-1,-2.0397052E-1,7.5956576E-2,-3.270993E-1],"split_indices":[34,6,6,6,41,6,6,46,5,42,6,6,5,5,6,45,1,5,5,40,5,12,11,17,5,50,5,6,5,5,6,47,4,6,33,5,6,54,0,12,5,6,4,13,0,3,6,1,0,5,47,51,5,15,3,0,5,5,54,11,5,5,13,0,0,0,0,0,0,0,0,0,0,0,0,0,0,0,0,0,0,0,0,0,0,0,0,0,0,0,0,0,0,0,0,0,0,0,0,0,0,0,0,0,0,0,0,0,0,0,0,0,0,0,0,0,0,0,0,0,0,0,0,0,0,0,0],"split_type":[0,0,0,0,0,0,0,0,0,0,0,0,0,0,0,0,0,0,0,0,0,0,0,0,0,0,0,0,0,0,0,0,0,0,0,0,0,0,0,0,0,0,0,0,0,0,0,0,0,0,0,0,0,0,0,0,0,0,0,0,0,0,0,0,0,0,0,0,0,0,0,0,0,0,0,0,0,0,0,0,0,0,0,0,0,0,0,0,0,0,0,0,0,0,0,0,0,0,0,0,0,0,0,0,0,0,0,0,0,0,0,0,0,0,0,0,0,0,0,0,0,0,0,0,0,0,0],"sum_hessian":[4.6794477E4,1.8932715E4,2.786176E4,1.4951332E4,3.9813835E3,3.6330088E3,2.422875E4,4.096482E3,1.0854851E4,3.5863447E3,3.9503882E2,1.2155002E3,2.4175085E3,2.196444E4,2.2643113E3,3.7022866E3,3.941951E2,8.252587E3,2.6022637E3,2.9776982E3,6.086465E2,1.9049222E2,2.0454662E2,4.694171E2,7.460831E2,2.1474138E3,2.700948E2,2.5080188E3,1.945642E4,1.4191367E3,8.451745E2,3.3029756E3,3.993112E2,1.4958858E2,2.4460652E2,2.863487E3,5.3891E3,1.9474973E3,6.547663E2,2.3375933E3,6.401048E2,2.2352242E2,3.8512405E2,9.5009026E1,9.548319E1,5.7923935E1,1.4662268E2,4.177377E2,5.1679424E1,5.8695624E2,1.5912689E2,1.5005117E3,6.4690204E2,1.11304245E2,1.5879056E2,1.930897E3,5.771219E2,1.5663832E4,3.7925886E3,2.3522697E2,1.1839098E3,3.781367E2,4.6703784E2,2.8316978E3,4.7127768E2,1.7565834E2,2.2365285E2,5.2178005E1,9.7410576E1,2.050368E2,3.956972E1,1.5270928E3,1.3363943E3,1.4679845E3,3.9211152E3,1.4135641E3,5.339332E2,5.9819604E2,5.6570236E1,1.1810164E3,1.156577E3,3.4139075E2,2.9871405E2,1.4947348E2,7.404894E1,1.9940973E2,1.8571431E2,8.161043E0,8.6847984E1,4.2107002E1,5.3376194E1,7.849868E0,5.0074066E1,1.02891685E2,4.3730988E1,1.8783325E1,3.9895438E2,4.3677376E1,8.002047E0,4.8751083E1,5.3820514E2,1.498254E2,9.3015E0,9.2632684E2,5.741849E2,1.19042854E2,5.278592E2,2.3956952E0,1.0890855E2,1.5762877E2,1.1617907E0,9.4598285E2,9.849141E2,3.747837E2,2.0233821E2,2.6699187E3,1.2993913E4,2.9991172E3,7.9347144E2,1.1737919E0,2.3405318E2,9.249083E2,2.590014E2,1.0490788E2,2.732288E2,2.759558E0,4.642783E2],"tree_param":{"num_deleted":"0","num_feature":"56","num_nodes":"127","size_leaf_vector":"0"}},{"base_weights":[7.4223675E-2,1.4405596E-1,-5.978527E-1,-3.5038418E-1,2.8541568E-1,-4.2230493E-1,-9.212967E-1,-4.4745898E-1,3.0084568E-1,-2.197619E-1,3.9487854E-1,-8.4074223E-1,-3.1278038E-1,-9.632362E-1,-4.0227106E-1,-5.357424E-1,1.4562954E-1,1.3762109E-1,5.98105E-1,1.8867633E-1,-3.7769398E-1,6.0170907E-1,-1.260239E-1,-9.8102576E-1,-5.096499E-1,-1.2959033E-1,-7.164139E-1,-8.9466345E-1,-1.1392001E0,-1.414738E-1,-7.5075144E-1,-6.4707035E-1,-3.616822E-2,-1.16367415E-1,3.623258E-1,-5.014721E-2,2.4730432E-1,6.691211E-1,2.6389625E-2,3.598871E-1,-4.167201E-1,-2.1810876E-1,-6.920783E-1,7.109294E-1,1.08733304E-1,1.9512797E-2,-6.118779E-1,5.7675076E-1,-9.94367E-1,-1.0529085E0,-3.681967E-1,-3.202477E-1,2.1856233E-1,-5.346003E-1,-9.978358E-1,-9.367978E-1,-4.8638356E-1,3.2224336E-1,-1.1441455E0,-4.5195487E-3,-9.0748864E-1,-9.393684E-1,-1.2801713E-1,-8.794012E-1,-5.499287E-1,2.015335E-1,-3.6442253E-1,-6.4973646E-1,9.425985E-2,6.885087E-2,4.7863668E-1,7.777164E-3,-7.385702E-1,1.8135771E-1,7.4082476E-1,6.972263E-1,-1.8050057E-1,6.9285494E-1,-2.803985E-1,-3.461342E-1,5.222491E-1,-7.161454E-1,-6.275725E-2,-1.14433914E-1,-7.152383E-1,-9.274176E-1,-5.827652E-1,7.2919506E-1,-1.4604181E0,-6.276038E-1,2.557817E-1,3.472014E-1,-2.4458751E-1,-1.0240877E0,-4.6964917E-1,1.2308416E0,-6.2347597E-1,7.5599834E-2,-1.0088397E0,-1.1230533E0,2.9143673E-1,9.548198E-1,-4.2230564E-1,-1.1863954E-1,-4.9434212E-1,-1.5701753E-1,4.1246974E-1,-5.7044923E-1,6.049112E-1,-8.5868496E-1,-1.1737776E0,-4.6465984E-1,-9.6021974E-1,-5.7602113E-1,2.9524332E-1,-1.2358072E-1,-1.1467581E0,-1.5442805E-1,1.0814289E0,-5.6058206E-2,-1.0711211E0,-1.0298599E0,3.256382E-1,6.403726E-1,-8.2543665E-1],"categories":[],"categories_nodes":[],"categories_segments":[],"categories_sizes":[],"default_left":[true,true,true,true,true,true,true,true,true,true,true,true,true,true,true,true,true,true,true,true,true,true,true,true,true,true,true,true,true,true,true,true,true,true,true,true,true,true,true,true,true,true,true,true,true,true,true,true,true,true,true,true,true,true,true,true,true,false,true,true,true,true,true,false,false,false,false,false,false,false,false,false,false,false,false,false,false,false,false,false,false,false,false,false,false,false,false,false,false,false,false,false,false,false,false,false,false,false,false,false,false,false,false,false,false,false,false,false,false,false,false,false,false,false,false,false,false,false,false,false,false,false,false,false,false],"id":4,"left_children":[1,3,5,7,9,11,13,15,17,19,21,23,25,27,29,31,33,35,37,39,41,43,45,47,49,51,53,55,57,59,61,63,65,67,69,71,73,75,77,79,81,83,85,87,89,91,93,95,97,99,101,103,105,107,109,111,113,-1,115,117,119,121,123,-1,-1,-1,-1,-1,-1,-1,-1,-1,-1,-1,-1,-1,-1,-1,-1,-1,-1,-1,-1,-1,-1,-1,-1,-1,-1,-1,-1,-1,-1,-1,-1,-1,-1,-1,-1,-1,-1,-1,-1,-1,-1,-1,-1,-1,-1,-1,-1,-1,-1,-1,-1,-1,-1,-1,-1,-1,-1,-1,-1,-1,-1],"loss_changes":[2.0319171E3,2.7412273E3,2.3099512E2,5.513967E2,1.686647E3,1.2087778E2,3.080127E1,3.9744788E2,5.483332E1,3.5048788E2,2.7008674E3,2.4941559E1,1.549299E2,1.496814E1,9.785229E0,3.6738562E2,5.591309E1,1.5086446E1,1.6258759E1,1.5722963E2,1.9641327E2,9.660576E2,5.038504E2,8.547058E0,1.2299236E1,9.587249E1,3.29429E1,1.6025757E1,3.0275574E0,6.6557817E0,5.3245163E0,1.2143799E2,9.40897E1,5.01929E1,1.8360558E1,1.080127E1,1.4908468E1,8.639893E0,9.463741E0,1.3566444E2,3.5414085E1,1.3393152E2,3.3383606E1,5.8364355E2,3.526684E2,4.7468478E2,9.5813416E1,3.8218992E0,5.9726257E0,3.4928284E0,9.890432E0,3.268818E1,3.7301643E1,1.6670029E1,5.2506866E0,9.145508E0,6.5951138E0,0E0,8.3651733E-1,9.097664E0,1.2807093E0,4.390072E0,6.923919E0,0E0,0E0,0E0,0E0,0E0,0E0,0E0,0E0,0E0,0E0,0E0,0E0,0E0,0E0,0E0,0E0,0E0,0E0,0E0,0E0,0E0,0E0,0E0,0E0,0E0,0E0,0E0,0E0,0E0,0E0,0E0,0E0,0E0,0E0,0E0,0E0,0E0,0E0,0E0,0E0,0E0,0E0,0E0,0E0,0E0,0E0,0E0,0E0,0E0,0E0,0E0,0E0,0E0,0E0,0E0,0E0,0E0,0E0,0E0,0E0,0E0,0E0],"parents":[2147483647,0,0,1,1,2,2,3,3,4,4,5,5,6,6,7,7,8,8,9,9,10,10,11,11,12,12,13,13,14,14,15,15,16,16,17,17,18,18,19,19,20,20,21,21,22,22,23,23,24,24,25,25,26,26,27,27,28,28,29,29,30,30,31,31,32,32,33,33,34,34,35,35,36,36,37,37,38,38,39,39,40,40,41,41,42,42,43,43,44,44,45,45,46,46,47,47,48,48,49,49,50,50,51,51,52,52,53,53,54,54,55,55,56,56,58,58,59,59,60,60,61,61,62,62],"right_children":[2,4,6,8,10,12,14,16,18,20,22,24,26,28,30,32,34,36,38,40,42,44,46,48,50,52,54,56,58,60,62,64,66,68,70,72,74,76,78,80,82,84,86,88,90,92,94,96,98,100,102,104,106,108,110,112,114,-1,116,118,120,122,124,-1,-1,-1,-1,-1,-1,-1,-1,-1,-1,-1,-1,-1,-1,-1,-1,-1,-1,-1,-1,-1,-1,-1,-1,-1,-1,-1,-1,-1,-1,-1,-1,-1,-1,-1,-1,-1,-1,-1,-1,-1,-1,-1,-1,-1,-1,-1,-1,-1,-1,-1,-1,-1,-1,-1,-1,-1,-1,-1,-1,-1,-1],"split_conditions":[3.4050002E0,1.605E0,3.605E0,5E-1,-8.65E-1,-6.25E-1,5E-1,5E-1,1.545E0,-2.1750002E0,8.05E-1,5E-1,5E-1,3.795E0,-1.7510708E1,5E-1,1.820966E0,5E-1,5E-1,2.9250002E0,2.705E0,3.1350002E0,5E-1,-1.405E0,-1.3806097E2,6.145E0,7.1500003E-1,6.525E0,6.98E1,3.8049998E0,1.58E0,1.345E0,5.85E-1,-6.65E-1,1.465E0,6.465E0,2.5E0,6.645E0,5.6549997E0,-1.055E0,-9.6500003E-1,2.315E0,-1.015E0,5E-1,-6.65E-1,9.35E-1,-2.1750002E0,3.5149999E0,1.805286E1,1.00100006E2,4.25E1,-2.1137226E1,5E-1,6.755E0,9.55E-1,7.845E1,2.5535E3,9.667301E-2,1.258E3,5E-1,-2.185E0,6.6949997E0,-2.9939709E0,-2.6382038E-1,-1.6497862E-1,6.046005E-2,-1.09326765E-1,-1.9492094E-1,2.8277956E-2,2.0655261E-2,1.4359102E-1,2.3331493E-3,-2.2157107E-1,5.4407317E-2,2.2224744E-1,2.091679E-1,-5.415017E-2,2.0785649E-1,-8.411955E-2,-1.0384026E-1,1.5667474E-1,-2.1484363E-1,-1.8827178E-2,-3.4330174E-2,-2.1457149E-1,-2.7822527E-1,-1.7482957E-1,2.1875852E-1,-4.3812546E-1,-1.8828116E-1,7.673451E-2,1.0416043E-1,-7.337625E-2,-3.072263E-1,-1.4089476E-1,3.692525E-1,-1.870428E-1,2.2679951E-2,-3.0265194E-1,-3.36916E-1,8.743102E-2,2.8644595E-1,-1.266917E-1,-3.5591863E-2,-1.4830264E-1,-4.710526E-2,1.2374093E-1,-1.7113477E-1,1.8147337E-1,-2.576055E-1,-3.5213327E-1,-1.3939796E-1,-2.8806594E-1,-1.7280635E-1,8.8573E-2,-3.7074216E-2,-3.4402743E-1,-4.6328418E-2,3.2442868E-1,-1.6817462E-2,-3.2133633E-1,-3.08958E-1,9.769147E-2,1.9211178E-1,-2.47631E-1],"split_indices":[6,6,6,46,5,5,41,45,6,0,5,40,49,6,12,47,7,34,36,6,6,6,54,4,8,1,5,1,13,6,0,6,5,5,6,1,17,1,1,5,5,0,5,51,5,5,0,6,11,13,18,12,34,1,5,2,14,0,14,32,0,1,9,0,0,0,0,0,0,0,0,0,0,0,0,0,0,0,0,0,0,0,0,0,0,0,0,0,0,0,0,0,0,0,0,0,0,0,0,0,0,0,0,0,0,0,0,0,0,0,0,0,0,0,0,0,0,0,0,0,0,0,0,0,0],"split_type":[0,0,0,0,0,0,0,0,0,0,0,0,0,0,0,0,0,0,0,0,0,0,0,0,0,0,0,0,0,0,0,0,0,0,0,0,0,0,0,0,0,0,0,0,0,0,0,0,0,0,0,0,0,0,0,0,0,0,0,0,0,0,0,0,0,0,0,0,0,0,0,0,0,0,0,0,0,0,0,0,0,0,0,0,0,0,0,0,0,0,0,0,0,0,0,0,0,0,0,0,0,0,0,0,0,0,0,0,0,0,0,0,0,0,0,0,0,0,0,0,0,0,0,0,0],"sum_hessian":[4.32915E4,3.9217395E4,4.074109E3,8.719018E3,3.0498375E4,2.642312E3,1.431797E3,7.5882046E3,1.1308136E3,5.431353E3,2.5067021E4,5.467569E2,2.095555E3,1.3239596E3,1.0783742E2,6.6051064E3,9.8309784E2,7.309262E2,3.9988742E2,1.514476E3,3.9168772E3,1.794256E4,7.1244614E3,3.826609E2,1.6409604E2,1.4422896E3,6.532655E2,9.5707416E2,3.6688544E2,6.2482483E1,4.5354935E1,5.401181E3,1.2039254E3,4.452412E2,5.378566E2,2.697242E2,4.6120197E2,3.5555188E2,4.433552E1,1.1809109E3,3.3356512E2,2.5991907E3,1.3176865E3,1.4687954E4,3.2546055E3,5.4829985E3,1.6414628E3,2.8907967E0,3.7977008E2,3.25691E1,1.3152693E2,9.3198865E2,5.1030087E2,3.9862927E2,2.5463622E2,8.663705E2,9.070367E1,1.0209336E0,3.658645E2,5.3859035E1,8.623448E0,3.44209E1,1.0934039E1,1.590109E3,3.8110723E3,6.9850024E2,5.0542517E2,1.25458725E2,3.1978247E2,1.5311353E2,3.8474307E2,2.4970276E2,2.0021456E1,4.0804456E2,5.315742E1,3.4434058E2,1.1211316E1,1.3578729E1,3.0756796E1,2.2058383E2,9.603271E2,1.8014938E2,1.5341574E2,2.1516921E3,4.4749863E2,4.1555576E2,9.0213074E2,1.4566087E4,1.2186735E2,5.4121783E2,2.7133877E3,2.4467822E3,3.0362166E3,4.194898E2,1.221973E3,1.8545887E0,1.036208E0,5.0119667E0,3.7475812E2,3.111044E1,1.4586617E0,4.5138016E0,1.2701313E2,4.3264743E2,4.9934125E2,1.7381953E2,3.3648135E2,3.869551E2,1.1674177E1,1.4546759E2,1.0916862E2,4.1932655E1,8.244378E2,8.160786E1,9.095805E0,1.0575718E0,3.6480695E2,4.807972E1,5.7793155E0,1.6065671E0,7.0168815E0,3.2296474E1,2.1244216E0,5.2412405E0,5.692798E0],"tree_param":{"num_deleted":"0","num_feature":"56","num_nodes":"125","size_leaf_vector":"0"}},{"base_weights":[5.7390645E-2,-1.9782345E-1,2.3186192E-1,-1.01486124E-1,-4.9363852E-1,3.0285686E-1,-2.5270525E-1,-3.7980264E-1,9.731745E-2,-5.710058E-1,1.7738123E-1,-9.192609E-2,4.509859E-1,-1.068112E-1,-6.3053983E-1,-2.5414443E-1,-7.938778E-1,-2.4602383E-1,2.149984E-1,-3.5490975E-1,-7.316262E-1,6.321968E-1,-1.0638166E-1,2.5168149E-2,-5.716443E-1,8.1006266E-2,5.7544345E-1,1.385851E-1,-6.4862096E-1,-8.1109273E-1,-3.9140603E-1,-6.768952E-2,-6.471431E-1,-6.588741E-1,-1.1820737E0,3.8262732E-2,-4.115642E-1,5.601384E-1,-1.1059551E-1,-7.780673E-1,-2.372127E-1,-8.343585E-1,-5.3262013E-1,8.2791024E-1,2.0571247E-1,2.0092943E-1,-3.8640293E-1,1.9032452E-1,-3.9207572E-1,-3.857483E-1,-1.1341757E0,-2.9939184E-1,2.9269123E-1,8.334909E-1,1.9812267E-1,-1.0360815E-1,3.7618983E-1,-2.599877E-1,-7.780516E-1,-6.7058134E-1,-1.0030477E0,-4.9307698E-1,3.5536194E-1,8.027586E-2,-5.2137387E-1,-7.597263E-1,-3.997945E-1,-4.4927442E-1,-9.1376567E-1,-1.0693156E0,-1.4978893E0,-3.3602324E-1,1.8365341E-1,-6.6317374E-1,-2.8781325E-1,1.21153325E-1,6.927316E-1,-4.632315E-1,4.1330308E-2,-8.3442837E-1,-3.656187E-1,-5.280302E-2,-6.2581855E-1,-7.6543796E-1,-1.0477866E0,-4.0181446E-1,-8.6810327E-1,8.800239E-1,1.5158498E-1,7.262007E-1,-3.1295905E-1,-9.031657E-1,2.741129E-1,-6.7204875E-1,-1.8238299E-1,3.3641985E-1,-2.2500287E-1,-6.177411E-1,-2.0839255E-1,-1.8736392E-1,-8.5241324E-1,-1.2982647E0,-8.054041E-1,-2.3063259E-1,-8.628924E-1,4.1518295E-1,-2.8344375E-1,8.410011E-1,-2.3225229E0,3.445769E-1,-3.6094236E-1,-4.9686193E-1,5.1761824E-3,6.75933E-1,1.6266716E-1,-1.3956647E-1,-9.3423146E-1,-8.234733E-1,-1.0904327E-1,-7.1588135E-1,6.217048E-2,9.231353E-1,-1.0200254E0,-3.8767323E-1,-9.039177E-1,5.9377956E-1,-8.5758764E-1],"categories":[],"categories_nodes":[],"categories_segments":[],"categories_sizes":[],"default_left":[true,true,true,true,true,true,true,true,true,true,true,true,true,true,true,true,true,true,true,true,true,true,true,true,true,true,true,true,true,true,true,true,true,true,true,true,true,true,true,true,true,true,true,true,true,true,true,true,true,true,true,true,true,true,true,true,true,true,true,true,true,true,true,false,false,false,false,false,false,false,false,false,false,false,false,false,false,false,false,false,false,false,false,false,false,false,false,false,false,false,false,false,false,false,false,false,false,false,false,false,false,false,false,false,false,false,false,false,false,false,false,false,false,false,false,false,false,false,false,false,false,false,false,false,false,false,false],"id":5,"left_children":[1,3,5,7,9,11,13,15,17,19,21,23,25,27,29,31,33,35,37,39,41,43,45,47,49,51,53,55,57,59,61,63,65,67,69,71,73,75,77,79,81,83,85,87,89,91,93,95,97,99,101,103,105,107,109,111,113,115,117,119,121,123,125,-1,-1,-1,-1,-1,-1,-1,-1,-1,-1,-1,-1,-1,-1,-1,-1,-1,-1,-1,-1,-1,-1,-1,-1,-1,-1,-1,-1,-1,-1,-1,-1,-1,-1,-1,-1,-1,-1,-1,-1,-1,-1,-1,-1,-1,-1,-1,-1,-1,-1,-1,-1,-1,-1,-1,-1,-1,-1,-1,-1,-1,-1,-1,-1],"loss_changes":[1.7875051E3,4.64476E2,8.203362E2,6.8044336E2,2.0797491E2,1.2162261E3,1.6792201E2,2.6641595E2,2.8991858E2,1.24361694E2,5.3588802E1,3.1879874E2,6.9631323E2,2.9256604E2,3.6327515E1,2.881245E2,6.171765E1,8.621823E1,6.0052155E2,7.615489E1,4.1642944E1,1.31407585E1,2.2127151E1,3.144873E2,1.1600357E2,3.0671146E2,1.1016418E3,8.721306E1,3.4299683E1,1.2345764E1,2.804438E1,1.791641E2,3.493164E1,4.69805E1,9.311127E0,3.679393E1,3.5856873E1,1.5090216E2,1.4736821E2,7.438553E0,8.6010185E1,1.9143677E1,3.053009E1,3.707695E0,1.412855E1,1.0171617E1,7.7104855E0,1.9845644E2,5.3516678E1,7.746227E1,1.3847076E1,5.256868E1,1.7280238E2,1.6122998E2,3.7653107E2,3.212881E1,4.8844246E1,1.3905184E1,1.553067E1,9.394913E0,7.5466156E0,1.3658302E1,1.3397624E1,0E0,0E0,0E0,0E0,0E0,0E0,0E0,0E0,0E0,0E0,0E0,0E0,0E0,0E0,0E0,0E0,0E0,0E0,0E0,0E0,0E0,0E0,0E0,0E0,0E0,0E0,0E0,0E0,0E0,0E0,0E0,0E0,0E0,0E0,0E0,0E0,0E0,0E0,0E0,0E0,0E0,0E0,0E0,0E0,0E0,0E0,0E0,0E0,0E0,0E0,0E0,0E0,0E0,0E0,0E0,0E0,0E0,0E0,0E0,0E0,0E0,0E0,0E0,0E0],"parents":[2147483647,0,0,1,1,2,2,3,3,4,4,5,5,6,6,7,7,8,8,9,9,10,10,11,11,12,12,13,13,14,14,15,15,16,16,17,17,18,18,19,19,20,20,21,21,22,22,23,23,24,24,25,25,26,26,27,27,28,28,29,29,30,30,31,31,32,32,33,33,34,34,35,35,36,36,37,37,38,38,39,39,40,40,41,41,42,42,43,43,44,44,45,45,46,46,47,47,48,48,49,49,50,50,51,51,52,52,53,53,54,54,55,55,56,56,57,57,58,58,59,59,60,60,61,61,62,62],"right_children":[2,4,6,8,10,12,14,16,18,20,22,24,26,28,30,32,34,36,38,40,42,44,46,48,50,52,54,56,58,60,62,64,66,68,70,72,74,76,78,80,82,84,86,88,90,92,94,96,98,100,102,104,106,108,110,112,114,116,118,120,122,124,126,-1,-1,-1,-1,-1,-1,-1,-1,-1,-1,-1,-1,-1,-1,-1,-1,-1,-1,-1,-1,-1,-1,-1,-1,-1,-1,-1,-1,-1,-1,-1,-1,-1,-1,-1,-1,-1,-1,-1,-1,-1,-1,-1,-1,-1,-1,-1,-1,-1,-1,-1,-1,-1,-1,-1,-1,-1,-1,-1,-1,-1,-1,-1,-1],"split_conditions":[5E-1,2.995E0,3.3049998E0,1.735E0,5E-1,1.675E0,5E-1,6.75E-1,-8.45E-1,-2.1888927E1,3.295E0,6.45E-1,-7.75E-1,5E-1,-5.05E-1,5E-1,5E-1,-1.805E0,7.25E-1,-7.55E-1,6.135E0,5E-1,-2.2982697E1,5E-1,5E-1,5E-1,7.1500003E-1,5.995E0,2.55E-1,3.5349998E0,6.4849997E0,5E-1,4.4446754E0,9.05E-1,5E-1,-1.025E0,-1.005E0,-7.1500003E-1,-2.005E0,5E-1,5E-1,7.25E-1,3.525E0,9.525E1,-2.6478569E1,-7.4253817E0,-1.66E0,5E-1,5E-1,9.45E-1,-1.425E0,3.085E0,2.9450002E0,5E-1,5E-1,-5.25E-1,-2.064286E1,3.7150002E0,-1.1347052E2,5E-1,1.5634786E1,3.6750002E0,3.745E0,2.408276E-2,-1.5641217E-1,-2.279179E-1,-1.1993835E-1,-1.3478233E-1,-2.7412972E-1,-3.2079467E-1,-4.493668E-1,-1.00806974E-1,5.5096027E-2,-1.9895212E-1,-8.6343974E-2,3.6346E-2,2.0781949E-1,-1.3896945E-1,1.2399093E-2,-2.503285E-1,-1.09685615E-1,-1.5840907E-2,-1.8774557E-1,-2.296314E-1,-3.14336E-1,-1.20544344E-1,-2.60431E-1,2.6400718E-1,4.5475498E-2,2.1786022E-1,-9.388772E-2,-2.7094972E-1,8.2233876E-2,-2.0161463E-1,-5.47149E-2,1.0092596E-1,-6.750087E-2,-1.8532234E-1,-6.251777E-2,-5.620918E-2,-2.5572398E-1,-3.8947943E-1,-2.4162124E-1,-6.918978E-2,-2.5886774E-1,1.2455489E-1,-8.5033126E-2,2.5230035E-1,-6.967569E-1,1.0337307E-1,-1.08282715E-1,-1.4905858E-1,1.5528548E-3,2.027799E-1,4.8800148E-2,-4.1869942E-2,-2.8026944E-1,-2.4704199E-1,-3.271298E-2,-2.1476442E-1,1.8651145E-2,2.7694058E-1,-3.0600762E-1,-1.16301976E-1,-2.7117532E-1,1.7813388E-1,-2.572763E-1],"split_indices":[34,6,6,6,41,6,48,5,5,12,6,5,5,49,5,50,54,0,5,5,1,30,12,50,54,54,5,1,5,6,1,51,7,5,47,5,5,5,0,33,49,5,6,2,12,7,0,51,54,5,0,6,6,50,54,5,12,6,8,22,11,6,6,0,0,0,0,0,0,0,0,0,0,0,0,0,0,0,0,0,0,0,0,0,0,0,0,0,0,0,0,0,0,0,0,0,0,0,0,0,0,0,0,0,0,0,0,0,0,0,0,0,0,0,0,0,0,0,0,0,0,0,0,0,0,0,0],"split_type":[0,0,0,0,0,0,0,0,0,0,0,0,0,0,0,0,0,0,0,0,0,0,0,0,0,0,0,0,0,0,0,0,0,0,0,0,0,0,0,0,0,0,0,0,0,0,0,0,0,0,0,0,0,0,0,0,0,0,0,0,0,0,0,0,0,0,0,0,0,0,0,0,0,0,0,0,0,0,0,0,0,0,0,0,0,0,0,0,0,0,0,0,0,0,0,0,0,0,0,0,0,0,0,0,0,0,0,0,0,0,0,0,0,0,0,0,0,0,0,0,0,0,0,0,0,0,0],"sum_hessian":[4.014179E4,1.6299288E4,2.38425E4,1.229617E4,4.0031187E3,2.0796008E4,3.0464912E3,5.1231157E3,7.173054E3,3.589415E3,4.1370355E2,5.6741226E3,1.5121887E4,2.1987615E3,8.4772974E2,3.9316138E3,1.1915021E3,1.8307217E3,5.3423325E3,1.5317856E3,2.0576294E3,1.5847374E2,2.5522983E2,4.5616245E3,1.1124978E3,3.8068298E3,1.1315057E4,1.5138523E3,6.849093E2,4.816661E2,3.660636E2,2.6673057E3,1.2643082E3,8.860543E2,3.054477E2,6.7400507E2,1.1567167E3,2.5929749E3,2.7493574E3,3.3211566E2,1.19967E3,1.3549666E3,7.0266284E2,1.07980354E2,5.0493378E1,1.21820076E2,1.3340976E2,3.268434E3,1.2931904E3,8.374402E2,2.7505756E2,1.3608917E3,2.445938E3,6.7188594E3,4.5961973E3,7.499666E2,7.638857E2,1.7186618E2,5.130431E2,2.806923E2,2.0097383E2,3.2249612E2,4.3567486E1,2.0119484E3,6.553572E2,8.674215E2,3.9688672E2,4.877421E2,3.9831223E2,2.283161E2,7.7131584E1,1.8820053E2,4.8580453E2,3.7991574E2,7.768009E2,6.019553E2,1.9910197E3,8.272268E2,1.9221306E3,2.9128806E2,4.082762E1,8.143587E2,3.8531128E2,1.0276896E3,3.2727698E2,5.071296E2,1.9553323E2,9.997563E1,8.004725E0,2.5002844E1,2.5490536E1,6.8677306E0,1.1495234E2,5.462955E1,7.8780205E1,2.4180518E3,8.503825E2,5.79221E2,7.139695E2,5.88615E2,2.4882521E2,1.8151503E2,9.35425E1,1.2141486E3,1.4674309E2,2.0173169E3,4.2862112E2,6.7036406E3,1.5218837E1,3.642406E3,9.5379114E2,1.617338E2,5.882328E2,3.168816E2,4.4700412E2,1.4684616E2,2.5020014E1,4.802089E2,3.28342E1,2.643714E2,1.6320883E1,1.2896103E0,1.9968422E2,2.5819754E2,6.4298584E1,3.683722E1,6.730265E0],"tree_param":{"num_deleted":"0","num_feature":"56","num_nodes":"127","size_leaf_vector":"0"}},{"base_weights":[4.469342E-2,-1.4818965E-1,1.7850803E-1,-1.07687026E-1,-6.4599735E-1,2.560371E-1,-1.5191786E-1,-6.145112E-1,-5.8692414E-2,-4.9922976E-1,-9.39397E-1,-4.0861454E-2,4.2242432E-1,-2.6168266E-1,3.7049624E-1,-9.001969E-1,-4.9256164E-1,-1.1572138E-2,-5.037282E-1,-8.577099E-1,-3.965721E-1,-9.6420604E-1,-5.199866E-1,-1.4351419E-1,4.2922536E-1,-1.0863515E-1,5.0697345E-1,-3.879565E-1,1.143442E-1,7.5322855E-1,1.5199976E-1,-7.7444255E-2,-9.147338E-1,-4.053155E-1,-9.073896E-1,-2.7648085E-1,8.9103386E-2,-5.6554246E-1,-7.8193825E-3,3.1105384E-1,-8.920698E-1,-2.7248397E-1,-8.230443E-1,-3.2814097E-1,-9.770049E-1,9.6208625E-2,-8.3835006E-1,-5.511552E-2,-4.6143058E-1,9.8193236E-2,6.568194E-1,-4.2170012E-1,4.0664863E-2,6.167257E-1,-6.7804374E-2,-5.5068415E-1,2.9150164E-2,-2.6404667E-1,4.9867013E-1,9.030174E-1,6.2107617E-1,3.150946E-1,-1.3159165E-1,-8.509709E-1,5.761142E-1,-1.023196E0,-8.028336E-1,-8.1337196E-1,-3.2436374E-1,2.56327E-1,-9.5168656E-1,-1.5300106E-1,-5.465586E-1,2.2265513E-1,-1.271835E-1,-9.0401804E-1,-4.8548803E-1,9.84514E-2,-7.53148E-1,-3.7388387E-1,1.4565674E0,-9.766661E-1,-6.371683E-1,1.0879621E-1,-3.9668128E-1,-8.688125E-1,2.2820033E-1,-8.4191656E-1,1.0498941E0,-1.0227355E0,-8.482815E-1,8.8945866E-1,-4.7915998E-1,2.1019329E-1,-1.0108868E0,6.9533505E-2,-3.0497235E-1,-3.0193976E-1,-1.0179209E0,3.217225E-1,-8.793203E-4,7.761149E-1,4.639097E-1,-4.6400174E-1,8.4621257E-1,-3.1435147E-1,1.701153E-1,3.3172277E-1,7.117976E-1,1.6510102E-1,-4.115684E-1,-4.97284E-1,-9.7542906E-1,3.4413055E-1,-3.700001E-1,8.426807E-2,-4.0583977E-1,7.290136E-1,3.3359054E-1,-3.926872E-1,9.2398566E-1,6.3686633E-1,-7.3182976E-1,-1.3691484E0,3.3896112E-1,6.599614E-1,-2.1814227E-1],"categories":[],"categories_nodes":[],"categories_segments":[],"categories_sizes":[],"default_left":[true,true,true,true,true,true,true,true,true,true,true,true,true,true,true,true,true,true,true,true,true,true,true,true,true,true,true,true,true,true,true,true,true,true,true,true,true,true,true,true,true,true,true,true,true,true,true,true,true,true,true,true,true,true,true,true,true,true,true,true,true,true,true,false,false,false,false,false,false,false,false,false,false,false,false,false,false,false,false,false,false,false,false,false,false,false,false,false,false,false,false,false,false,false,false,false,false,false,false,false,false,false,false,false,false,false,false,false,false,false,false,false,false,false,false,false,false,false,false,false,false,false,false,false,false,false,false],"id":6,"left_children":[1,3,5,7,9,11,13,15,17,19,21,23,25,27,29,31,33,35,37,39,41,43,45,47,49,51,53,55,57,59,61,63,65,67,69,71,73,75,77,79,81,83,85,87,89,91,93,95,97,99,101,103,105,107,109,111,113,115,117,119,121,123,125,-1,-1,-1,-1,-1,-1,-1,-1,-1,-1,-1,-1,-1,-1,-1,-1,-1,-1,-1,-1,-1,-1,-1,-1,-1,-1,-1,-1,-1,-1,-1,-1,-1,-1,-1,-1,-1,-1,-1,-1,-1,-1,-1,-1,-1,-1,-1,-1,-1,-1,-1,-1,-1,-1,-1,-1,-1,-1,-1,-1,-1,-1,-1,-1],"loss_changes":[9.735055E2,3.1142215E2,5.7049805E2,3.5475513E2,4.9576782E1,8.9103174E2,2.4280302E2,4.3431335E1,2.7322577E2,2.8246994E1,3.5190125E0,3.126965E2,5.190598E2,1.6614932E2,6.1376274E1,4.420746E0,3.1655258E1,3.142767E2,3.823535E1,7.1876373E0,3.1831413E1,2.639679E0,4.7396946E0,1.4943616E2,8.743933E1,7.425805E1,6.2908276E2,1.777833E2,1.2813509E2,4.723831E0,2.1749458E1,4.3387704E0,3.6562195E0,2.3944626E1,8.128212E0,1.0813747E2,2.4668054E2,2.9616058E1,1.1105542E1,4.9820356E0,2.9878235E0,2.2333038E1,6.7431183E0,7.028214E0,1.2278137E0,4.5281787E0,3.0640259E0,1.296554E2,1.0237508E2,1.0505406E1,1.5474731E1,2.7906067E1,4.9520805E1,2.2663525E2,1.2814488E2,4.2248413E1,9.265707E1,2.1971558E1,1.637455E1,3.7027512E0,3.5644798E0,1.24535675E1,1.1932461E1,0E0,0E0,0E0,0E0,0E0,0E0,0E0,0E0,0E0,0E0,0E0,0E0,0E0,0E0,0E0,0E0,0E0,0E0,0E0,0E0,0E0,0E0,0E0,0E0,0E0,0E0,0E0,0E0,0E0,0E0,0E0,0E0,0E0,0E0,0E0,0E0,0E0,0E0,0E0,0E0,0E0,0E0,0E0,0E0,0E0,0E0,0E0,0E0,0E0,0E0,0E0,0E0,0E0,0E0,0E0,0E0,0E0,0E0,0E0,0E0,0E0,0E0,0E0,0E0],"parents":[2147483647,0,0,1,1,2,2,3,3,4,4,5,5,6,6,7,7,8,8,9,9,10,10,11,11,12,12,13,13,14,14,15,15,16,16,17,17,18,18,19,19,20,20,21,21,22,22,23,23,24,24,25,25,26,26,27,27,28,28,29,29,30,30,31,31,32,32,33,33,34,34,35,35,36,36,37,37,38,38,39,39,40,40,41,41,42,42,43,43,44,44,45,45,46,46,47,47,48,48,49,49,50,50,51,51,52,52,53,53,54,54,55,55,56,56,57,57,58,58,59,59,60,60,61,61,62,62],"right_children":[2,4,6,8,10,12,14,16,18,20,22,24,26,28,30,32,34,36,38,40,42,44,46,48,50,52,54,56,58,60,62,64,66,68,70,72,74,76,78,80,82,84,86,88,90,92,94,96,98,100,102,104,106,108,110,112,114,116,118,120,122,124,126,-1,-1,-1,-1,-1,-1,-1,-1,-1,-1,-1,-1,-1,-1,-1,-1,-1,-1,-1,-1,-1,-1,-1,-1,-1,-1,-1,-1,-1,-1,-1,-1,-1,-1,-1,-1,-1,-1,-1,-1,-1,-1,-1,-1,-1,-1,-1,-1,-1,-1,-1,-1,-1,-1,-1,-1,-1,-1,-1,-1,-1,-1,-1,-1],"split_conditions":[5E-1,3.455E0,3.145E0,1.425E0,3.6550002E0,1.755E0,5E-1,1.295E0,9.75E-1,-6.15E-1,-1.1644266E2,5E-1,-9.45E-1,5E-1,3.3249998E0,4.74E0,7.1500003E-1,-7.65E-1,2.4050002E0,-4.326366E1,6.25E-1,-1.8887678E1,3.705E0,6.95E-1,1.555E0,5E-1,9.45E-1,5E-1,-5.65E-1,3.2350001E0,3.505E0,-2.71E0,1.235E0,-7.25E-1,-6.6647673E0,2.705E0,6.65E-1,1.775E0,5E-1,-1.26E0,5E-1,2.3623798E1,-1.1343874E2,5.4635002E1,6.215E0,3.2579417E0,-2.19E0,5E-1,5E-1,5.675E0,6.035E0,7.8178196E0,-1.055E0,-7.25E-1,1.035E0,9.35E-1,5.95E-1,-2.145E0,3.335E0,4.815E0,1.765E0,4.835E0,1.996E3,-2.5529128E-1,1.7283426E-1,-3.069588E-1,-2.4085009E-1,-2.440116E-1,-9.730913E-2,7.6898105E-2,-2.8550598E-1,-4.590032E-2,-1.639676E-1,6.679654E-2,-3.815505E-2,-2.7120543E-1,-1.4564641E-1,2.953542E-2,-2.2594441E-1,-1.1216517E-1,4.3697023E-1,-2.9299983E-1,-1.911505E-1,3.2638863E-2,-1.1900439E-1,-2.6064375E-1,6.84601E-2,-2.5257498E-1,3.1496823E-1,-3.0682066E-1,-2.5448447E-1,2.668376E-1,-1.43748E-1,6.305799E-2,-3.0326605E-1,2.0860052E-2,-9.149171E-2,-9.058193E-2,-3.0537626E-1,9.651676E-2,-2.637961E-4,2.3283447E-1,1.3917291E-1,-1.3920052E-1,2.5386378E-1,-9.430545E-2,5.1034596E-2,9.951683E-2,2.1353929E-1,4.953031E-2,-1.2347052E-1,-1.4918521E-1,-2.9262874E-1,1.0323917E-1,-1.1100003E-1,2.5280422E-2,-1.21751934E-1,2.1870409E-1,1.0007717E-1,-1.1780617E-1,2.7719572E-1,1.910599E-1,-2.1954894E-1,-4.1074452E-1,1.0168834E-1,1.9798844E-1,-6.544268E-2],"split_indices":[34,6,6,6,6,6,41,6,5,5,8,46,5,40,6,1,5,5,0,12,5,10,6,5,6,54,5,42,5,6,6,0,6,5,7,6,5,6,54,4,40,11,8,16,1,9,0,50,54,1,1,7,5,5,5,5,5,0,6,1,4,1,14,0,0,0,0,0,0,0,0,0,0,0,0,0,0,0,0,0,0,0,0,0,0,0,0,0,0,0,0,0,0,0,0,0,0,0,0,0,0,0,0,0,0,0,0,0,0,0,0,0,0,0,0,0,0,0,0,0,0,0,0,0,0,0,0],"split_type":[0,0,0,0,0,0,0,0,0,0,0,0,0,0,0,0,0,0,0,0,0,0,0,0,0,0,0,0,0,0,0,0,0,0,0,0,0,0,0,0,0,0,0,0,0,0,0,0,0,0,0,0,0,0,0,0,0,0,0,0,0,0,0,0,0,0,0,0,0,0,0,0,0,0,0,0,0,0,0,0,0,0,0,0,0,0,0,0,0,0,0,0,0,0,0,0,0,0,0,0,0,0,0,0,0,0,0,0,0,0,0,0,0,0,0,0,0,0,0,0,0,0,0,0,0,0,0],"sum_hessian":[3.7715293E4,1.5448053E4,2.2267242E4,1.4286861E4,1.1611908E3,1.8035686E4,4.2315557E3,1.2583486E3,1.3028513E4,7.7580884E2,3.8538205E2,6.477715E3,1.1557971E4,3.497246E3,7.343097E2,3.745426E2,8.83806E2,1.1782058E4,1.2464552E3,1.7107176E2,6.0473706E2,3.626325E2,2.2749516E1,5.3172773E3,1.1604377E3,1.5873599E3,9.970611E3,2.6180464E3,8.791997E2,2.6597092E2,4.683388E2,6.612607E0,3.6793E2,7.318593E2,1.5194676E2,3.2440925E3,8.537965E3,1.1081816E3,1.3827356E2,4.655643E0,1.6641612E2,4.6970782E2,1.350292E2,7.6783667E0,3.5495416E2,7.987479E0,1.4762035E1,4.1613584E3,1.1559187E3,4.7336584E2,6.870719E2,5.1197745E2,1.0753824E3,8.371939E3,1.5986721E3,1.8830741E3,7.349723E2,4.4317828E2,4.3602142E2,1.2193258E2,1.4403835E2,2.972676E2,1.7107118E2,2.8900256E0,3.7225814E0,1.8269978E2,1.8523021E2,1.196562E2,6.122031E2,5.396253E0,1.465505E2,2.2273245E3,1.016768E3,5.278558E3,3.2594072E3,2.0999904E2,8.981826E2,1.2177805E2,1.6495504E1,3.3350966E0,1.3205464E0,1.22822464E2,4.359366E1,1.1543904E2,3.542688E2,1.2956198E2,5.467224E0,5.876475E0,1.8018922E0,2.5678342E2,9.817075E1,3.12845E0,4.8590293E0,2.0550134E0,1.2707023E1,2.77679E3,1.3845684E3,8.996271E2,2.5629166E2,1.4468272E2,3.286831E2,4.2266968E2,2.6440225E2,4.960613E2,1.5916147E1,2.8696255E2,7.8841986E2,2.0952786E3,6.2766606E3,9.533098E2,6.453623E2,1.674697E3,2.08377E2,4.1087634E2,3.2409592E2,1.283333E2,3.14845E2,1.8060228E2,2.5541913E2,1.6594807E0,1.20273094E2,1.4289978E2,1.1385691E0,3.3659837E0,2.9390164E2,1.6208687E1,1.5486249E2],"tree_param":{"num_deleted":"0","num_feature":"56","num_nodes":"127","size_leaf_vector":"0"}},{"base_weights":[3.3764016E-2,8.515183E-2,-2.837865E-1,1.5621418E-1,-1.6150156E-1,-5.001636E-1,-1.656968E-1,-5.8751486E-2,3.08417E-1,-2.4206845E-1,2.935199E-1,-8.7059104E-1,-2.777371E-1,3.9783154E-2,-4.0754604E-1,5.0859347E-2,-3.603797E-1,-5.2155193E-2,3.8322315E-1,-1.6299777E-1,-6.139319E-1,6.480245E-1,4.184052E-2,-7.251015E-1,-1.1767194E0,-8.409154E-1,-2.0551795E-1,-3.6753505E-1,1.15429044E-1,-2.02898E-1,-6.6236407E-1,1.7953065E-1,-2.5884214E-1,-2.792839E-1,-7.030042E-1,-3.0368236E-1,7.901205E-2,5.6583863E-1,8.35745E-2,-9.453804E-3,-4.5514908E-1,-1.0127513E0,-5.3998095E-1,8.898031E-1,4.8196617E-1,7.154686E-2,-7.493775E-1,-9.6193576E-1,-4.9139225E-1,-1.0390757E0,-1.4422174E0,-8.7353086E-1,-1.1582946E-1,-8.969824E-2,-6.3059694E-1,3.8720548E-1,-4.385267E-1,1.7837429E-1,-5.362549E-1,-2.7771747E-1,5.0795037E-1,-4.1116703E-1,-7.43467E-1,2.653625E-1,-1.2834199E-1,-6.270562E-2,-4.2360118E-1,-7.8571266E-1,-2.1465482E-1,-3.729245E-1,-7.7993846E-1,-6.9659E-1,-1.94385E-1,2.1606211E-1,-2.4665907E-1,2.5862172E-1,7.27349E-1,-4.0296155E-1,1.9505866E-1,-1.5544106E-1,1.9143923E-1,-7.8074235E-1,-3.8677117E-1,-1.3351518E0,-9.142681E-1,-3.9689225E-1,-7.379895E-1,-1.0680581E-1,9.037546E-1,2.1315654E-1,5.795795E-1,-1.7743521E0,8.38262E-2,2.7916038E-1,-8.380935E-1,-1.34115E0,-8.4148365E-1,-2.1923292E-1,-6.998405E-1,-1.1041092E0,-3.536237E-1,-1.527027E0,1.0993229E-1,-8.8836384E-1,4.211113E-1,-5.8817774E-1,5.2643454E-1,-3.442524E-1,8.205235E-2,-8.609623E-1,-2.9912707E-1,-4.6286026E-1,8.755627E-1,-2.1112521E-1,-6.270759E-1,-1.1246299E0,2.0044841E-1,-3.1016657E-1,-8.058673E-1,-3.6280045E-1,6.374376E-2,6.846618E-1,-6.980935E-2,-7.018102E-1,-1.6408406E-1,-7.5626826E-1,7.3806536E-1],"categories":[],"categories_nodes":[],"categories_segments":[],"categories_sizes":[],"default_left":[true,true,true,true,true,true,true,true,true,true,true,true,true,true,true,true,true,true,true,true,true,true,true,true,true,true,true,true,true,true,true,true,true,true,true,true,true,true,true,true,true,true,true,true,true,true,true,true,true,true,true,true,true,true,true,true,true,true,true,true,true,true,true,false,false,false,false,false,false,false,false,false,false,false,false,false,false,false,false,false,false,false,false,false,false,false,false,false,false,false,false,false,false,false,false,false,false,false,false,false,false,false,false,false,false,false,false,false,false,false,false,false,false,false,false,false,false,false,false,false,false,false,false,false,false,false,false],"id":7,"left_children":[1,3,5,7,9,11,13,15,17,19,21,23,25,27,29,31,33,35,37,39,41,43,45,47,49,51,53,55,57,59,61,63,65,67,69,71,73,75,77,79,81,83,85,87,89,91,93,95,97,99,101,103,105,107,109,111,113,115,117,119,121,123,125,-1,-1,-1,-1,-1,-1,-1,-1,-1,-1,-1,-1,-1,-1,-1,-1,-1,-1,-1,-1,-1,-1,-1,-1,-1,-1,-1,-1,-1,-1,-1,-1,-1,-1,-1,-1,-1,-1,-1,-1,-1,-1,-1,-1,-1,-1,-1,-1,-1,-1,-1,-1,-1,-1,-1,-1,-1,-1,-1,-1,-1,-1,-1,-1],"loss_changes":[5.8510077E2,5.4094934E2,1.27528564E2,7.83915E2,2.5313481E2,1.4500043E2,1.6065103E2,3.2840585E2,3.7838025E2,1.7235736E2,9.26613E1,2.8582123E1,4.4684708E1,5.3917572E1,7.7299576E1,2.903926E2,7.33663E1,7.956942E1,6.356577E2,2.1702383E2,2.977475E1,1.6885574E1,1.4358429E1,2.446782E1,6.223358E0,2.855713E0,4.81357E1,1.4856468E1,6.0617523E1,4.401652E1,1.3159393E1,1.36072E2,6.9096054E1,6.99547E1,1.2560013E1,3.53612E1,7.0817505E1,3.5796484E2,2.3875113E2,9.3068726E1,3.6805023E1,3.8490906E0,2.434021E1,2.5215607E0,6.642044E0,1.34651785E1,2.2514954E0,9.046326E0,1.2828785E1,5.972351E0,9.325562E0,2.6688538E0,2.2921524E0,3.371158E1,1.5734695E1,1.04088335E1,1.0629963E1,3.8945835E1,7.686859E0,2.1726536E1,8.104685E0,1.1629726E1,1.0010315E1,0E0,0E0,0E0,0E0,0E0,0E0,0E0,0E0,0E0,0E0,0E0,0E0,0E0,0E0,0E0,0E0,0E0,0E0,0E0,0E0,0E0,0E0,0E0,0E0,0E0,0E0,0E0,0E0,0E0,0E0,0E0,0E0,0E0,0E0,0E0,0E0,0E0,0E0,0E0,0E0,0E0,0E0,0E0,0E0,0E0,0E0,0E0,0E0,0E0,0E0,0E0,0E0,0E0,0E0,0E0,0E0,0E0,0E0,0E0,0E0,0E0,0E0,0E0,0E0],"parents":[2147483647,0,0,1,1,2,2,3,3,4,4,5,5,6,6,7,7,8,8,9,9,10,10,11,11,12,12,13,13,14,14,15,15,16,16,17,17,18,18,19,19,20,20,21,21,22,22,23,23,24,24,25,25,26,26,27,27,28,28,29,29,30,30,31,31,32,32,33,33,34,34,35,35,36,36,37,37,38,38,39,39,40,40,41,41,42,42,43,43,44,44,45,45,46,46,47,47,48,48,49,49,50,50,51,51,52,52,53,53,54,54,55,55,56,56,57,57,58,58,59,59,60,60,61,61,62,62],"right_children":[2,4,6,8,10,12,14,16,18,20,22,24,26,28,30,32,34,36,38,40,42,44,46,48,50,52,54,56,58,60,62,64,66,68,70,72,74,76,78,80,82,84,86,88,90,92,94,96,98,100,102,104,106,108,110,112,114,116,118,120,122,124,126,-1,-1,-1,-1,-1,-1,-1,-1,-1,-1,-1,-1,-1,-1,-1,-1,-1,-1,-1,-1,-1,-1,-1,-1,-1,-1,-1,-1,-1,-1,-1,-1,-1,-1,-1,-1,-1,-1,-1,-1,-1,-1,-1,-1,-1,-1,-1,-1,-1,-1,-1,-1,-1,-1,-1,-1,-1,-1,-1,-1,-1,-1,-1,-1],"split_conditions":[5E-1,3.045E0,1.795E0,1.785E0,5E-1,4.95E-1,2.795E0,5E-1,-9.25E-1,7.35E-1,3.3249998E0,6.065E0,1.355E0,-9.45E-1,5E-1,5E-1,8.922737E0,5E-1,7.95E-1,5E-1,-2.1750002E0,3.185E0,3.745E0,4.5E0,1.605E0,5E-1,7.1500003E-1,-2.6950002E0,1.035E0,5E-1,-4.3660836E0,5.15E-1,-1.575E0,1.295E0,4.5499998E-1,-1.055E0,-1.315E0,-7.1500003E-1,-2.2649999E0,6.065E0,-9.85E-1,3.1350002E0,9.25E-1,4.815E0,5E-1,3.655E0,1.9426332E1,-6.15E-1,5.565E0,5E-1,1.0229129E1,2.7575E3,5.4275E1,2.1945E3,-1.345E0,2.2045E3,2.245E0,-1.2260176E1,1.075E0,5E-1,3.455E0,-7.05E-1,5.5415E1,7.960875E-2,-3.8502596E-2,-1.8811688E-2,-1.2708037E-1,-2.3571381E-1,-6.439645E-2,-1.1187736E-1,-2.3398155E-1,-2.0897701E-1,-5.8315504E-2,6.4818636E-2,-7.399772E-2,7.758652E-2,2.182047E-1,-1.2088847E-1,5.85176E-2,-4.663232E-2,5.743177E-2,-2.3422271E-1,-1.16031356E-1,-4.0054557E-1,-2.7428043E-1,-1.1906768E-1,-2.2139685E-1,-3.2041743E-2,2.711264E-1,6.394696E-2,1.7387384E-1,-5.3230566E-1,2.514786E-2,8.374812E-2,-2.5142807E-1,-4.0234503E-1,-2.524451E-1,-6.576988E-2,-2.0995216E-1,-3.3123276E-1,-1.0608711E-1,-4.5810813E-1,3.297969E-2,-2.6650918E-1,1.2633339E-1,-1.7645332E-1,1.5793037E-1,-1.03275724E-1,2.4615707E-2,-2.5828868E-1,-8.973812E-2,-1.3885808E-1,2.6266882E-1,-6.3337564E-2,-1.8812278E-1,-3.3738896E-1,6.0134526E-2,-9.304997E-2,-2.4176021E-1,-1.0884014E-1,1.912313E-2,2.0539854E-1,-2.0942805E-2,-2.1054307E-1,-4.9225222E-2,-2.2688049E-1,2.2141962E-1],"split_indices":[36,6,6,6,41,4,6,51,5,5,6,1,6,5,19,50,7,54,5,48,0,6,6,17,6,47,5,0,5,41,7,5,0,6,5,5,0,5,0,1,5,6,5,1,34,1,11,5,1,33,10,14,16,14,0,14,6,7,5,42,6,5,16,0,0,0,0,0,0,0,0,0,0,0,0,0,0,0,0,0,0,0,0,0,0,0,0,0,0,0,0,0,0,0,0,0,0,0,0,0,0,0,0,0,0,0,0,0,0,0,0,0,0,0,0,0,0,0,0,0,0,0,0,0,0,0,0],"split_type":[0,0,0,0,0,0,0,0,0,0,0,0,0,0,0,0,0,0,0,0,0,0,0,0,0,0,0,0,0,0,0,0,0,0,0,0,0,0,0,0,0,0,0,0,0,0,0,0,0,0,0,0,0,0,0,0,0,0,0,0,0,0,0,0,0,0,0,0,0,0,0,0,0,0,0,0,0,0,0,0,0,0,0,0,0,0,0,0,0,0,0,0,0,0,0,0,0,0,0,0,0,0,0,0,0,0,0,0,0,0,0,0,0,0,0,0,0,0,0,0,0,0,0,0,0,0,0],"sum_hessian":[3.585318E4,3.0859977E4,4.993203E3,2.395792E4,6.9020576E3,1.7618004E3,3.2314026E3,9.931561E3,1.4026358E4,5.8641997E3,1.0378575E3,6.598977E2,1.1019027E3,1.7475148E3,1.483888E3,7.285032E3,2.6465286E3,2.410043E3,1.1616315E4,4.8371064E3,1.0270934E3,4.3025058E2,6.07607E2,4.4959384E2,2.1030388E2,1.2403226E2,9.778704E2,2.7310605E2,1.4744087E3,8.239544E2,6.599335E2,5.1470244E3,2.1380078E3,2.1414775E3,5.0505103E2,8.255835E2,1.5844595E3,7.217097E3,4.3992188E3,3.171379E3,1.6657275E3,1.5867256E2,8.6842084E2,1.7340984E2,2.5684076E2,5.8649646E2,2.111048E1,2.2175635E2,2.2783751E2,1.4173633E2,6.856755E1,1.1849733E2,5.534926E0,7.6943604E2,2.0843439E2,2.3097107E1,2.5000894E2,1.3452036E3,1.2920506E2,7.4604016E2,7.7914246E1,1.6254823E2,4.9738525E2,4.0250251E3,1.121999E3,9.7669135E2,1.1613164E3,2.4109756E2,1.90038E3,9.657062E1,4.084804E2,1.7850636E2,6.4707715E2,1.1154066E3,4.690528E2,2.4877073E3,4.7293896E3,8.1962396E2,3.5795947E3,1.8368105E3,1.3345685E3,2.872967E2,1.3784309E3,3.4189793E1,1.24482765E2,5.058664E2,3.6255444E2,2.3021631E0,1.7110767E2,6.926923E1,1.8757152E2,2.9274461E0,5.8356903E2,1.5058295E0,1.960465E1,5.1014687E1,1.7074165E2,9.970714E1,1.2813036E2,1.288963E2,1.2840026E1,6.503046E1,3.537092E0,1.1746532E2,1.0320102E0,3.2378705E0,2.2970557E0,3.0958743E2,4.598486E2,1.22029076E2,8.640531E1,8.4466095E0,1.4650497E1,1.14289185E2,1.3571976E2,2.157731E1,1.3236263E3,7.144445E1,5.7760612E1,5.971772E2,1.4886299E2,5.9523556E1,1.8390686E1,7.38446E1,8.8703636E1,4.9360974E2,3.7755315E0],"tree_param":{"num_deleted":"0","num_feature":"56","num_nodes":"127","size_leaf_vector":"0"}},{"base_weights":[2.587163E-2,4.641567E-2,-5.399312E-1,7.093408E-2,-4.379452E-1,-3.8800701E-1,-8.044692E-1,-1.121972E-1,1.3829388E-1,-8.1180805E-1,-3.3027202E-1,-7.658397E-1,-2.8460118E-1,-6.71429E-1,-9.914776E-1,-4.922045E-1,-5.6401554E-2,2.3774883E-1,-5.3548962E-2,-8.526001E-1,-3.5989738E-1,-6.911929E-1,-2.3785742E-1,7.702869E-1,-8.159698E-1,-1.6253626E-1,-8.203864E-1,1.2725766E0,-6.8419105E-1,-1.0044338E-2,-1.0063468E0,-8.1267494E-1,-3.8464338E-1,-1.1779587E-2,-4.9502188E-1,2.3117024E-2,3.3589628E-1,-3.14415E-1,4.7570758E-2,-7.2320855E-1,-9.3809825E-1,4.514817E-1,-5.827289E-1,-4.9276942E-1,-8.1843954E-1,-1.4268392E-1,-6.544891E-1,-2.6750532E-1,1.8041579E0,-9.888203E-1,-6.8133307E-1,-2.7247223E-1,2.2155742E-1,-9.240006E-1,-2.2546703E-1,-8.175815E-1,-4.7408417E-1,6.124624E-1,-6.224826E-1,-1.0161815E0,-3.4312552E-1,7.9967916E-1,-8.222671E-1,-1.875688E-1,-5.600736E-1,-3.3679676E-1,4.7815155E-2,-8.213323E-1,-4.034362E-1,9.215835E-2,-5.111829E-1,5.61167E-1,1.4092453E-1,-5.6515828E-2,-4.4272316E-1,2.2517866E-1,-3.0616137E-1,-4.8958522E-1,-8.624019E-1,-1.4644155E-1,-9.49706E-1,1.3394814E0,-1.588915E-1,7.706613E-1,-7.0328116E-1,-6.911394E-1,-1.7017795E-1,-8.4864545E-1,-6.300358E-2,3.131465E-2,-4.5493147E-1,-9.1674194E-2,-7.5638616E-1,4.1953754E-1,-6.928677E-1,-1.2404285E-1,-1.0157639E0,-2.987938E-2,-7.3627E-1,-3.0906346E-2,-3.8147315E-1,-1.6846168E-1,7.8367805E-1,-9.4287217E-1,3.1370074E-1,4.6087742E-1,-8.087056E-1,-8.4458184E-1,-1.1839496E-1,9.061415E-2,-5.7701445E-1,-1.3478224E-1,-1.0215727E0,4.2598042E-1,-7.3297536E-1],"categories":[],"categories_nodes":[],"categories_segments":[],"categories_sizes":[],"default_left":[true,true,true,true,true,true,true,true,true,true,true,true,true,true,true,true,true,true,true,true,true,true,true,true,true,true,true,false,true,true,true,true,true,true,true,true,true,true,true,true,true,true,true,true,true,true,true,true,false,true,true,true,true,true,true,true,true,false,false,true,true,false,false,false,false,false,false,false,false,false,false,false,false,false,false,false,false,false,false,false,false,false,false,false,false,false,false,false,false,false,false,false,false,false,false,false,false,false,false,false,false,false,false,false,false,false,false,false,false,false,false,false,false,false,false],"id":8,"left_children":[1,3,5,7,9,11,13,15,17,19,21,23,25,27,29,31,33,35,37,39,41,43,45,47,49,51,53,-1,55,57,59,61,63,65,67,69,71,73,75,77,79,81,83,85,87,89,91,93,-1,95,97,99,101,103,105,107,109,-1,-1,111,113,-1,-1,-1,-1,-1,-1,-1,-1,-1,-1,-1,-1,-1,-1,-1,-1,-1,-1,-1,-1,-1,-1,-1,-1,-1,-1,-1,-1,-1,-1,-1,-1,-1,-1,-1,-1,-1,-1,-1,-1,-1,-1,-1,-1,-1,-1,-1,-1,-1,-1,-1,-1,-1,-1],"loss_changes":[3.978154E2,3.9221268E2,4.788022E1,3.8776874E2,6.3788086E1,2.9616638E1,1.0194366E1,1.7920657E2,4.384856E2,6.23967E0,4.1099457E1,1.32183075E1,3.9180695E1,7.275345E0,2.607193E0,3.6989258E1,1.4428366E2,3.188211E2,2.0700932E2,2.91687E0,5.8918095E0,5.9510803E0,3.9022186E1,6.578175E0,3.0220947E0,2.0786184E1,6.651993E0,0E0,6.8184967E0,1.7868259E0,8.036041E-1,4.8493805E0,2.7971962E1,1.2964499E2,2.001207E1,1.7528098E2,4.560775E2,7.251535E1,3.5540118E2,3.9245987E0,1.6282501E0,4.153904E0,4.59816E0,6.3358116E0,3.4109573E0,4.3712563E1,1.0434769E1,1.373755E0,0E0,1.4425812E0,3.288063E0,1.0048134E1,2.4199152E1,2.5021515E0,7.510489E0,2.8429718E0,5.994211E0,0E0,0E0,6.8711853E-1,1.53892E0,0E0,0E0,0E0,0E0,0E0,0E0,0E0,0E0,0E0,0E0,0E0,0E0,0E0,0E0,0E0,0E0,0E0,0E0,0E0,0E0,0E0,0E0,0E0,0E0,0E0,0E0,0E0,0E0,0E0,0E0,0E0,0E0,0E0,0E0,0E0,0E0,0E0,0E0,0E0,0E0,0E0,0E0,0E0,0E0,0E0,0E0,0E0,0E0,0E0,0E0,0E0,0E0,0E0,0E0],"parents":[2147483647,0,0,1,1,2,2,3,3,4,4,5,5,6,6,7,7,8,8,9,9,10,10,11,11,12,12,13,13,14,14,15,15,16,16,17,17,18,18,19,19,20,20,21,21,22,22,23,23,24,24,25,25,26,26,28,28,29,29,30,30,31,31,32,32,33,33,34,34,35,35,36,36,37,37,38,38,39,39,40,40,41,41,42,42,43,43,44,44,45,45,46,46,47,47,49,49,50,50,51,51,52,52,53,53,54,54,55,55,56,56,59,59,60,60],"right_children":[2,4,6,8,10,12,14,16,18,20,22,24,26,28,30,32,34,36,38,40,42,44,46,48,50,52,54,-1,56,58,60,62,64,66,68,70,72,74,76,78,80,82,84,86,88,90,92,94,-1,96,98,100,102,104,106,108,110,-1,-1,112,114,-1,-1,-1,-1,-1,-1,-1,-1,-1,-1,-1,-1,-1,-1,-1,-1,-1,-1,-1,-1,-1,-1,-1,-1,-1,-1,-1,-1,-1,-1,-1,-1,-1,-1,-1,-1,-1,-1,-1,-1,-1,-1,-1,-1,-1,-1,-1,-1,-1,-1,-1,-1,-1,-1],"split_conditions":[3.5549998E0,1.025E0,3.6950002E0,1.665E0,1.855E0,-5.55E-1,3.8049998E0,1.345E0,2.895E0,2.585E0,-2.065E0,-4.3251556E1,6.15E-1,1.2953328E1,1.549E3,1.235E0,6.455E0,-7.95E-1,-6.45E-1,1.055E0,2.745E0,1.055E0,2.9450002E0,5E-1,-8.15E-1,6.3450003E0,2.245E2,3.81773E-1,6.105E0,2.2134827E1,6.855E0,-1.4416013E2,5.855E0,-6.65E-1,9.5E-2,2.315E0,6.55E-1,-2.045E0,6.05E-1,5.4934983E0,-4.351175E1,5.9000003E-1,-1.0287783E1,5.4515E1,8.2933445E0,1.075E0,8.245E1,-8.85E-1,5.4124737E-1,1.6425E3,-1.205E0,-5.734037E-1,5E-1,6.925E0,7.75E-1,2.585E2,-2.125E0,1.8373872E-1,-1.8674478E-1,-3.49E0,3.8449998E0,2.3990376E-1,-2.4668014E-1,-5.627064E-2,-1.680221E-1,-1.0103903E-1,1.4344547E-2,-2.4639969E-1,-1.2103087E-1,2.7647505E-2,-1.5335488E-1,1.683501E-1,4.227736E-2,-1.695475E-2,-1.3281696E-1,6.75536E-2,-9.184842E-2,-1.4687558E-1,-2.5872058E-1,-4.3932468E-2,-2.849118E-1,4.018444E-1,-4.766745E-2,2.311984E-1,-2.1098436E-1,-2.0734183E-1,-5.1053386E-2,-2.5459364E-1,-1.8901074E-2,9.394395E-3,-1.3647945E-1,-2.750226E-2,-2.2691585E-1,1.2586127E-1,-2.0786032E-1,-3.7212856E-2,-3.0472916E-1,-8.963814E-3,-2.2088102E-1,-9.271904E-3,-1.1444195E-1,-5.0538506E-2,2.3510343E-1,-2.8286165E-1,9.411023E-2,1.3826323E-1,-2.4261169E-1,-2.5337458E-1,-3.551849E-2,2.7184246E-2,-1.7310435E-1,-4.0434673E-2,-3.0647182E-1,1.2779413E-1,-2.1989262E-1],"split_indices":[6,5,6,6,6,5,6,6,6,0,0,12,5,11,14,6,1,5,5,5,0,5,6,40,5,1,18,0,1,11,1,8,1,5,4,0,5,0,5,7,12,4,7,16,10,5,13,5,0,14,3,7,54,1,5,18,0,0,0,0,6,0,0,0,0,0,0,0,0,0,0,0,0,0,0,0,0,0,0,0,0,0,0,0,0,0,0,0,0,0,0,0,0,0,0,0,0,0,0,0,0,0,0,0,0,0,0,0,0,0,0,0,0,0,0],"split_type":[0,0,0,0,0,0,0,0,0,0,0,0,0,0,0,0,0,0,0,0,0,0,0,0,0,0,0,0,0,0,0,0,0,0,0,0,0,0,0,0,0,0,0,0,0,0,0,0,0,0,0,0,0,0,0,0,0,0,0,0,0,0,0,0,0,0,0,0,0,0,0,0,0,0,0,0,0,0,0,0,0,0,0,0,0,0,0,0,0,0,0,0,0,0,0,0,0,0,0,0,0,0,0,0,0,0,0,0,0,0,0,0,0,0,0],"sum_hessian":[3.4220832E4,3.302271E4,1.1981215E3,3.143245E4,1.5902612E3,7.626172E2,4.3550433E2,8.452352E3,2.2980098E4,3.5412576E2,1.2361355E3,1.6249037E2,6.001268E2,2.571528E2,1.7835153E2,1.0811493E3,7.371202E3,1.5134071E4,7.846027E3,3.2399362E2,3.0132145E1,2.5067125E2,9.854642E2,4.6811514E0,1.5780922E2,4.8983405E2,1.10292755E2,1.0333326E0,2.5611948E2,2.686793E0,1.7566473E2,2.700373E2,8.1111194E2,6.6914873E3,6.797152E2,4.74933E3,1.0384741E4,2.1911765E3,5.65485E3,1.3267075E2,1.9132286E2,6.2712E0,2.3860945E1,9.984668E1,1.5082457E2,8.033036E2,1.8216063E2,2.706073E0,1.9750783E0,6.632058E1,9.148864E1,3.8105765E2,1.0877638E2,9.346181E1,1.6830948E1,1.5489203E2,1.01227455E2,1.3324243E0,1.3543689E0,1.7257353E2,3.091195E0,1.1098682E0,2.6892743E2,3.8296567E2,4.2814627E2,1.03611E3,5.655377E3,1.4721944E2,5.324958E2,4.2065894E3,5.427408E2,4.8171357E3,5.5676055E3,7.284446E2,1.462732E3,3.7648787E3,1.8899714E3,5.1219986E1,8.145077E1,2.9615104E0,1.8836136E2,2.0680194E0,4.2031803E0,1.5104942E0,2.235045E1,6.1119953E1,3.8726727E1,1.449071E2,5.917461E0,5.1642676E2,2.8687683E2,2.8215527E1,1.539451E2,1.0399866E0,1.6660864E0,2.1732101E0,6.414737E1,7.2352624E0,8.425338E1,1.1888046E2,2.621772E2,6.463243E1,4.414395E1,9.229281E1,1.1690005E0,7.8284125E0,9.002535E0,1.4893277E2,5.959258E0,1.5624986E1,8.560247E1,1.2072444E0,1.7136629E2,1.0086418E0,2.0825531E0],"tree_param":{"num_deleted":"0","num_feature":"56","num_nodes":"115","size_leaf_vector":"0"}},{"base_weights":[1.8765666E-2,-1.06286556E-1,1.0828695E-1,4.755856E-3,-3.129786E-1,1.3042893E-1,-3.8944408E-1,-1.3407855E-1,1.0041055E-1,-3.3602285E-1,2.3796456E-1,9.389742E-2,4.193511E-1,1.2188739E-1,-5.1426345E-1,-3.0362993E-2,-2.9292938E-1,-1.1930213E-2,2.3779403E-1,-2.831409E-1,-5.414935E-1,4.9589717E-1,-3.6402065E-1,1.310841E-1,-1.9550665E-1,-2.570643E-1,4.409463E-1,6.254154E-1,-6.501172E-2,-3.0473644E-1,-1.0402404E0,-4.8446932E-1,-2.3676308E-3,-5.121796E-1,-1.5895952E-1,-5.32249E-1,1.0959815E-2,2.6944846E-1,-2.9195595E-1,-2.2145213E-1,-4.3801278E-1,-7.7183855E-1,-4.203932E-1,6.083219E-1,-1.6737087E-1,-1.1030552E0,7.576999E-2,-1.9597892E-2,2.2664882E-1,3.2593936E-1,-2.4272965E-1,-7.344555E-1,5.08486E-1,4.8189414E-1,2.0694727E-2,-3.2112193E-1,7.291624E-1,-4.2850533E-1,2.146807E-1,-7.60635E-1,-2.2532731E-1,-1.3982707E0,-5.5541986E-1,-2.6245695E-1,-7.133352E-1,3.8630884E-2,-3.2890433E-1,-1.0139362E0,-3.810601E-1,1.514823E-2,-2.8915355E-1,5.4568905E-1,-6.1793995E-1,8.064654E-2,-1.7148562E-1,3.2129106E-1,-6.942505E-2,7.1311235E-1,-4.506975E-1,-3.5006014E-1,-6.165534E-2,-5.575148E-1,-2.6465964E-1,-9.608935E-1,-6.188593E-1,-3.6103228E-1,-6.9005626E-1,8.30588E-1,3.430317E-1,-1.3909416E0,5.1594324E-2,-4.361854E-1,-1.9304634E0,-1.2997315E0,3.0461958E-1,-7.86904E-2,2.62128E-1,3.3912343E-1,-2.2482552E-2,-1.2314285E-1,5.5122226E-1,-3.4352183E-1,-3.0547542E-2,-8.312675E-1,7.7190185E-1,6.315066E-1,-1.1643684E0,4.0302943E-2,5.085927E-1,5.5681205E-1,-2.0162004E-1,4.6725768E-1,-1.0158756E0,9.2632604E-1,6.6640176E-2,4.354717E-2,-7.612073E-1,4.3981192E-1,-3.0407208E-1,-9.71191E-1,-4.0580553E-1,-1.28E-1,-6.8192905E-1,-1.9113822E0,-9.7295207E-1,-8.724733E-2,-1.0809042E0],"categories":[],"categories_nodes":[],"categories_segments":[],"categories_sizes":[],"default_left":[true,true,true,true,true,true,true,true,true,true,true,true,true,true,true,true,true,true,true,true,true,true,true,true,true,true,true,true,true,true,true,true,true,true,true,true,true,true,true,true,true,true,true,true,true,true,true,true,true,true,true,true,true,true,true,true,true,true,true,true,true,true,true,false,false,false,false,false,false,false,false,false,false,false,false,false,false,false,false,false,false,false,false,false,false,false,false,false,false,false,false,false,false,false,false,false,false,false,false,false,false,false,false,false,false,false,false,false,false,false,false,false,false,false,false,false,false,false,false,false,false,false,false,false,false,false,false],"id":9,"left_children":[1,3,5,7,9,11,13,15,17,19,21,23,25,27,29,31,33,35,37,39,41,43,45,47,49,51,53,55,57,59,61,63,65,67,69,71,73,75,77,79,81,83,85,87,89,91,93,95,97,99,101,103,105,107,109,111,113,115,117,119,121,123,125,-1,-1,-1,-1,-1,-1,-1,-1,-1,-1,-1,-1,-1,-1,-1,-1,-1,-1,-1,-1,-1,-1,-1,-1,-1,-1,-1,-1,-1,-1,-1,-1,-1,-1,-1,-1,-1,-1,-1,-1,-1,-1,-1,-1,-1,-1,-1,-1,-1,-1,-1,-1,-1,-1,-1,-1,-1,-1,-1,-1,-1,-1,-1,-1],"loss_changes":[3.700526E2,3.165287E2,2.1236053E2,1.19167534E2,6.127185E1,1.9464108E2,5.2446266E1,6.029889E1,8.1999954E1,5.011853E1,3.031673E1,1.7626044E2,3.035205E1,1.5272001E1,7.240837E1,2.8166637E1,4.2386116E1,3.482816E1,4.015773E1,3.507773E1,2.6062103E1,1.0264938E1,1.9192558E1,2.0897124E2,4.6003098E1,2.40108E1,3.4517365E1,4.545786E0,1.2184344E1,1.69642E1,3.1782806E1,6.350075E0,2.796626E1,3.5661163E1,2.0380188E1,1.1719276E1,3.5632656E1,3.9652985E1,2.1898895E1,5.4130417E1,2.155754E1,8.797623E0,9.710396E0,6.599598E0,5.574275E0,1.1296177E1,1.229302E1,9.379317E1,2.4883377E2,1.5779461E1,3.6574898E1,6.510708E0,5.969141E0,2.153418E1,2.146891E1,3.2304866E0,5.1469803E0,8.20869E0,8.061902E0,4.8202744E0,1.7890066E1,2.154335E1,1.9916304E1,0E0,0E0,0E0,0E0,0E0,0E0,0E0,0E0,0E0,0E0,0E0,0E0,0E0,0E0,0E0,0E0,0E0,0E0,0E0,0E0,0E0,0E0,0E0,0E0,0E0,0E0,0E0,0E0,0E0,0E0,0E0,0E0,0E0,0E0,0E0,0E0,0E0,0E0,0E0,0E0,0E0,0E0,0E0,0E0,0E0,0E0,0E0,0E0,0E0,0E0,0E0,0E0,0E0,0E0,0E0,0E0,0E0,0E0,0E0,0E0,0E0,0E0,0E0,0E0],"parents":[2147483647,0,0,1,1,2,2,3,3,4,4,5,5,6,6,7,7,8,8,9,9,10,10,11,11,12,12,13,13,14,14,15,15,16,16,17,17,18,18,19,19,20,20,21,21,22,22,23,23,24,24,25,25,26,26,27,27,28,28,29,29,30,30,31,31,32,32,33,33,34,34,35,35,36,36,37,37,38,38,39,39,40,40,41,41,42,42,43,43,44,44,45,45,46,46,47,47,48,48,49,49,50,50,51,51,52,52,53,53,54,54,55,55,56,56,57,57,58,58,59,59,60,60,61,61,62,62],"right_children":[2,4,6,8,10,12,14,16,18,20,22,24,26,28,30,32,34,36,38,40,42,44,46,48,50,52,54,56,58,60,62,64,66,68,70,72,74,76,78,80,82,84,86,88,90,92,94,96,98,100,102,104,106,108,110,112,114,116,118,120,122,124,126,-1,-1,-1,-1,-1,-1,-1,-1,-1,-1,-1,-1,-1,-1,-1,-1,-1,-1,-1,-1,-1,-1,-1,-1,-1,-1,-1,-1,-1,-1,-1,-1,-1,-1,-1,-1,-1,-1,-1,-1,-1,-1,-1,-1,-1,-1,-1,-1,-1,-1,-1,-1,-1,-1,-1,-1,-1,-1,-1,-1,-1,-1,-1,-1],"split_conditions":[5E-1,5E-1,1.0167909E1,5E-1,5E-1,2.5E0,4.75E-1,5E-1,3.5E0,2.5E0,5E-1,5E-1,-1.0056486E1,9.125E1,5E-1,1.395E0,1.855E0,-1.025E0,1.0139652E1,2.855E0,1.815E0,2.775E0,-2.0549998E0,1.835E0,-2.835E0,-6.15E-1,5E-1,2.3132786E1,1.585E0,-7.437662E0,2.3049998E0,-1.300488E2,5E-1,-6.5E-2,2.5949998E0,-2.96E0,2.8649998E0,3.295E0,3.9499998E-1,1.865E0,6.045E0,-2.6437233E1,5E-1,1.015E0,-1.3951756E2,-1.3317082E2,2.0095E3,5E-1,3.085E0,5E-1,6.1549997E0,9.5350006E1,-1.015373E1,-1.015E0,-4.316696E0,-3.335E0,2.7727663E1,-3.1550002E0,3.1950002E0,-1.362674E2,2.815E0,5E-1,-1.4254074E1,-7.873709E-2,-2.1400057E-1,1.1589265E-2,-9.86713E-2,-3.0418086E-1,-1.14318036E-1,4.544469E-3,-8.674607E-2,1.6370672E-1,-1.85382E-1,2.4193963E-2,-5.144569E-2,9.638732E-2,-2.0827515E-2,2.1393372E-1,-1.3520926E-1,-1.0501804E-1,-1.8496603E-2,-1.6725445E-1,-7.9397894E-2,-2.8826806E-1,-1.856578E-1,-1.08309686E-1,-2.0701689E-1,2.491764E-1,1.0290951E-1,-4.172825E-1,1.5478298E-2,-1.3085562E-1,-5.7913905E-1,-3.8991946E-1,9.138588E-2,-2.3607122E-2,7.8638405E-2,1.0173703E-1,-6.7447657E-3,-3.694286E-2,1.6536668E-1,-1.0305656E-1,-9.1642635E-3,-2.4938025E-1,2.3157056E-1,1.8945199E-1,-3.4931052E-1,1.2090883E-2,1.5257782E-1,1.6704363E-1,-6.0486015E-2,1.4017731E-1,-3.047627E-1,2.7789783E-1,1.9992054E-2,1.3064151E-2,-2.2836219E-1,1.3194358E-1,-9.122163E-2,-2.913573E-1,-1.2174166E-1,-3.84E-2,-2.0457873E-1,-5.734147E-1,-2.9188564E-1,-2.6174199E-2,-3.242713E-1],"split_indices":[34,30,7,35,44,17,5,31,17,17,54,48,7,2,54,6,6,5,7,6,6,6,0,6,0,5,49,11,6,9,6,8,48,4,6,0,6,6,5,6,1,12,48,4,8,8,14,46,6,54,1,13,7,5,7,0,11,0,6,8,6,51,10,0,0,0,0,0,0,0,0,0,0,0,0,0,0,0,0,0,0,0,0,0,0,0,0,0,0,0,0,0,0,0,0,0,0,0,0,0,0,0,0,0,0,0,0,0,0,0,0,0,0,0,0,0,0,0,0,0,0,0,0,0,0,0,0],"split_type":[0,0,0,0,0,0,0,0,0,0,0,0,0,0,0,0,0,0,0,0,0,0,0,0,0,0,0,0,0,0,0,0,0,0,0,0,0,0,0,0,0,0,0,0,0,0,0,0,0,0,0,0,0,0,0,0,0,0,0,0,0,0,0,0,0,0,0,0,0,0,0,0,0,0,0,0,0,0,0,0,0,0,0,0,0,0,0,0,0,0,0,0,0,0,0,0,0,0,0,0,0,0,0,0,0,0,0,0,0,0,0,0,0,0,0,0,0,0,0,0,0,0,0,0,0,0,0],"sum_hessian":[3.305363E4,1.3790083E4,1.9263545E4,8.971335E3,4.8187476E3,1.8443795E4,8.1974963E2,3.6594958E3,5.3118394E3,4.6256606E3,1.9308707E2,1.6374692E4,2.0691023E3,1.6084799E2,6.589017E2,2.21469E3,1.4448058E3,2.9227617E3,2.389078E3,3.6807297E3,9.449309E2,1.352939E2,5.7793156E1,1.4510702E4,1.8639907E3,6.367709E1,2.0054253E3,4.290653E1,1.1794147E2,4.7232617E2,1.8657549E2,1.2765891E2,2.087031E3,5.469175E2,8.978883E2,1.22223236E2,2.8005383E3,2.2548347E3,1.34243E2,2.6339866E3,1.046743E3,3.2375064E2,6.211803E2,1.15755974E2,1.953793E1,2.0998552E1,3.67946E1,5.631698E3,8.879004E3,1.5429803E2,1.7096927E3,3.9244896E1,2.4432192E1,1.8272389E3,1.7818633E2,4.0313344E0,3.887519E1,5.1056023E1,6.6885445E1,6.8793655E1,4.0353253E2,1.06237274E2,8.033821E1,6.588939E1,6.1769524E1,1.8550063E3,2.3202475E2,1.11915634E2,4.3500186E2,3.845352E2,5.1335315E2,8.605346E0,1.1361789E2,2.0269022E3,7.736361E2,1.9556946E3,2.991402E2,1.7834164E1,1.1640884E2,1.4587563E3,1.1752303E3,6.18299E2,4.2844406E2,1.424396E2,1.8131104E2,5.1102676E2,1.1015352E2,6.182594E1,5.3930035E1,2.1532567E0,1.7384674E1,1.2472891E1,8.525661E0,4.5810094E0,3.2213593E1,4.6558467E3,9.7585156E2,6.1170127E3,2.7619907E3,5.1697285E1,1.02600746E2,1.158673E3,5.510198E2,3.7296078E1,1.9488186E0,2.33384E1,1.0937935E0,1.0431928E2,1.7229197E3,5.1789684E1,1.26396645E2,2.0418127E0,1.9895217E0,2.9652544E1,9.222648E0,2.146691E1,2.9589111E1,4.6749157E1,2.0136286E1,4.2083958E1,2.6709698E1,3.336858E2,6.984673E1,4.6565666E1,5.9671604E1,4.310261E1,3.72356E1],"tree_param":{"num_deleted":"0","num_feature":"56","num_nodes":"127","size_leaf_vector":"0"}},{"base_weights":[1.3577633E-2,4.0925357E-2,-2.6427302E-1,-3.508115E-1,6.331887E-2,-3.237387E-1,2.6731065E-1,-5.6278956E-1,-2.4106908E-1,7.961954E-2,-3.913962E-1,-2.5422308E-1,-6.451598E-1,3.2703993E-1,-4.8485318E-1,-1.0583684E0,-5.126802E-1,-5.92514E-1,-1.5019125E-1,-3.1697508E-2,1.5397747E-1,-3.0712527E-1,-9.0616256E-1,-1.6388872E-1,-5.4298073E-1,-4.473344E-1,-7.2244847E-1,4.0415165E-1,-2.92823E-1,1.7904495E-1,-8.323766E-1,-1.0776689E0,-1.0711145E-1,-3.7986633E-1,-7.039913E-1,-2.707903E-1,-6.817067E-1,2.5048715E-1,-2.279086E-1,6.971745E-2,-1.635432E-1,2.9431653E-1,3.1094443E-2,-6.643678E-1,-2.2432035E-1,2.6187852E-1,-9.310658E-1,-4.7729355E-1,-7.417014E-2,-7.795803E-1,-4.2418462E-1,2.9389232E-1,-4.8606202E-1,-8.330011E-1,-6.0323626E-1,-1.2799834E-1,5.0791246E-1,-4.986356E-1,7.152958E-1,8.205451E-1,-4.5356578E-1,-1.0153856E0,4.2240626E-1,-2.2594845E-1,-1.0967885E0,-5.3719807E-1,-2.1055728E-1,-7.3829323E-1,9.0349936E-1,-1.0571156E0,-1.0251006E-1,-7.0302296E-1,5.9485686E-1,3.0589858E-1,-8.075748E-1,-1.977629E-1,-1.1509204E0,1.3540913E-1,-1.686392E-1,-3.5845435E-1,-6.1748605E-2,2.6967168E-1,9.3367493E-1,-1.0037081E-2,3.3680248E-1,5.794713E-1,-7.1438843E-1,-1.3210975E-1,-6.949473E-1,1.3446308E0,-6.6675776E-1,-7.6154345E-1,-1.0127838E0,-5.662281E-1,-1.7890178E-2,-4.042881E-1,3.7070375E-2,-6.1162925E-1,-9.195922E-1,-3.1102797E-1,-7.1760345E-1,-3.3733523E-1,1.0213033E0,-1.0553207E0,-4.222981E-1,-5.430556E-1,-8.823825E-1,-8.1499034E-1,-4.7514844E-1,-5.701048E-1,3.918054E-1,5.6290156E-1,-4.051043E-1,-6.2953126E-1,5.921948E-1,1.3555549E0,-4.335423E-1,-2.9166576E-1,1.3945639E0,-7.9793286E-1,4.0870634E-1,-1.0844707E0,-2.9922563E-1],"categories":[],"categories_nodes":[],"categories_segments":[],"categories_sizes":[],"default_left":[true,true,true,true,true,true,true,true,true,true,true,true,true,true,true,true,true,true,true,true,true,true,true,true,true,true,true,true,true,true,true,true,false,true,true,true,true,true,true,true,true,true,true,true,true,true,true,true,true,true,true,true,true,true,true,true,true,true,true,true,true,true,false,false,false,false,false,false,false,false,false,false,false,false,false,false,false,false,false,false,false,false,false,false,false,false,false,false,false,false,false,false,false,false,false,false,false,false,false,false,false,false,false,false,false,false,false,false,false,false,false,false,false,false,false,false,false,false,false,false,false,false,false],"id":10,"left_children":[1,3,5,7,9,11,13,15,17,19,21,23,25,27,29,31,33,35,37,39,41,43,45,47,49,51,53,55,57,59,61,63,-1,65,67,69,71,73,75,77,79,81,83,85,87,89,91,93,95,97,99,101,103,105,107,109,111,113,115,117,119,121,-1,-1,-1,-1,-1,-1,-1,-1,-1,-1,-1,-1,-1,-1,-1,-1,-1,-1,-1,-1,-1,-1,-1,-1,-1,-1,-1,-1,-1,-1,-1,-1,-1,-1,-1,-1,-1,-1,-1,-1,-1,-1,-1,-1,-1,-1,-1,-1,-1,-1,-1,-1,-1,-1,-1,-1,-1,-1,-1,-1,-1],"loss_changes":[2.4718575E2,2.5981693E2,9.223091E1,3.712114E1,2.076798E2,5.8424194E1,1.3358856E1,1.300528E1,3.366981E1,2.2387206E2,4.1786407E1,5.618924E1,6.795868E0,1.3157972E1,5.229181E0,7.870903E-1,1.237088E1,6.0373077E0,2.6250725E1,1.448474E2,2.7962155E2,2.4545067E1,4.1968765E0,4.621432E1,1.4107513E1,3.9731312E0,3.8885498E0,1.3484825E1,6.739319E0,3.7764175E0,3.7885094E0,5.349808E-1,0E0,7.765152E0,1.184079E1,6.33878E0,5.0197372E0,8.286636E0,1.9389984E1,9.590114E1,9.342329E1,1.1902283E2,1.08723114E2,1.0155609E1,2.9383736E1,4.53382E0,1.0750809E0,1.493885E1,4.7017685E1,3.4471893E0,1.1204102E1,3.672788E0,4.1708546E0,1.9583435E0,4.0592346E0,9.520367E0,1.044923E1,4.104625E0,4.7261014E0,3.2930918E0,1.7714845E0,3.217392E-1,0E0,0E0,0E0,0E0,0E0,0E0,0E0,0E0,0E0,0E0,0E0,0E0,0E0,0E0,0E0,0E0,0E0,0E0,0E0,0E0,0E0,0E0,0E0,0E0,0E0,0E0,0E0,0E0,0E0,0E0,0E0,0E0,0E0,0E0,0E0,0E0,0E0,0E0,0E0,0E0,0E0,0E0,0E0,0E0,0E0,0E0,0E0,0E0,0E0,0E0,0E0,0E0,0E0,0E0,0E0,0E0,0E0,0E0,0E0,0E0,0E0],"parents":[2147483647,0,0,1,1,2,2,3,3,4,4,5,5,6,6,7,7,8,8,9,9,10,10,11,11,12,12,13,13,14,14,15,15,16,16,17,17,18,18,19,19,20,20,21,21,22,22,23,23,24,24,25,25,26,26,27,27,28,28,29,29,30,30,31,31,33,33,34,34,35,35,36,36,37,37,38,38,39,39,40,40,41,41,42,42,43,43,44,44,45,45,46,46,47,47,48,48,49,49,50,50,51,51,52,52,53,53,54,54,55,55,56,56,57,57,58,58,59,59,60,60,61,61],"right_children":[2,4,6,8,10,12,14,16,18,20,22,24,26,28,30,32,34,36,38,40,42,44,46,48,50,52,54,56,58,60,62,64,-1,66,68,70,72,74,76,78,80,82,84,86,88,90,92,94,96,98,100,102,104,106,108,110,112,114,116,118,120,122,-1,-1,-1,-1,-1,-1,-1,-1,-1,-1,-1,-1,-1,-1,-1,-1,-1,-1,-1,-1,-1,-1,-1,-1,-1,-1,-1,-1,-1,-1,-1,-1,-1,-1,-1,-1,-1,-1,-1,-1,-1,-1,-1,-1,-1,-1,-1,-1,-1,-1,-1,-1,-1,-1,-1,-1,-1,-1,-1,-1,-1],"split_conditions":[9.6500003E-1,-1.015E0,2.605E0,5E-1,3.5549998E0,5E-1,3.185E0,1.605E0,-1.085E0,1.845E0,3.795E0,1.065E0,9.95E-1,5E-1,2.1305E3,6.6949997E0,-3.8171806E0,2.65E-1,-2.6750002E0,5.965E0,2.6950002E0,-5.55E-1,1.549E3,-1.3653467E2,2.0349998E0,3.85E1,-1.555E0,1.825E0,9.185E1,3.335E0,-2.5559752E0,-1.545E0,-3.2133434E-2,-1.055E0,8.347572E0,1.9864792E1,1.665E0,3.255E0,2.8850002E0,6.15E-1,-2.4535063E1,5E-1,5E-1,-1.145E0,5.75E-1,5E-1,3.8449998E0,2.245E2,1.865E0,5E-1,2.8249998E0,2.5175E3,2.1833456E1,5.6499996E0,2.205E0,1.315E2,3.16E2,1.760772E1,9.355E1,5.705E0,3.5E0,5E-1,1.2672189E-1,-6.778454E-2,-3.2903656E-1,-1.6115943E-1,-6.3167185E-2,-2.2148798E-1,2.7104983E-1,-3.1713468E-1,-3.0753018E-2,-2.109069E-1,1.7845707E-1,9.1769576E-2,-2.4227245E-1,-5.9328873E-2,-3.4527612E-1,4.062274E-2,-5.0591763E-2,-1.0753631E-1,-1.8524582E-2,8.09015E-2,2.801025E-1,-3.0111244E-3,1.0104075E-1,1.7384139E-1,-2.1431653E-1,-3.9632924E-2,-2.084842E-1,4.0338928E-1,-2.0002733E-1,-2.2846304E-1,-3.0383515E-1,-1.6986844E-1,-5.3670537E-3,-1.2128644E-1,1.1121113E-2,-1.8348879E-1,-2.7587768E-1,-9.33084E-2,-2.1528104E-1,-1.0120057E-1,3.06391E-1,-3.1659624E-1,-1.2668943E-1,-1.6291669E-1,-2.6471478E-1,-2.444971E-1,-1.4254454E-1,-1.7103145E-1,1.17541626E-1,1.6887048E-1,-1.215313E-1,-1.8885939E-1,1.7765844E-1,4.066665E-1,-1.300627E-1,-8.749973E-2,4.183692E-1,-2.3937987E-1,1.226119E-1,-3.2534122E-1,-8.9767694E-2],"split_indices":[5,5,0,54,6,54,6,6,5,6,6,5,5,54,14,1,9,4,0,1,6,5,14,8,6,18,0,6,13,6,7,3,0,5,7,11,4,6,0,5,12,46,41,4,5,20,6,18,6,30,6,14,11,15,6,18,18,10,13,1,17,22,0,0,0,0,0,0,0,0,0,0,0,0,0,0,0,0,0,0,0,0,0,0,0,0,0,0,0,0,0,0,0,0,0,0,0,0,0,0,0,0,0,0,0,0,0,0,0,0,0,0,0,0,0,0,0,0,0,0,0,0,0],"split_type":[0,0,0,0,0,0,0,0,0,0,0,0,0,0,0,0,0,0,0,0,0,0,0,0,0,0,0,0,0,0,0,0,0,0,0,0,0,0,0,0,0,0,0,0,0,0,0,0,0,0,0,0,0,0,0,0,0,0,0,0,0,0,0,0,0,0,0,0,0,0,0,0,0,0,0,0,0,0,0,0,0,0,0,0,0,0,0,0,0,0,0,0,0,0,0,0,0,0,0,0,0,0,0,0,0,0,0,0,0,0,0,0,0,0,0,0,0,0,0,0,0,0,0],"sum_hessian":[3.2528078E4,2.961413E4,2.9139475E3,1.600549E3,2.8013582E4,2.621126E3,2.9282162E2,5.445569E2,1.0559921E3,2.7044898E4,9.6868353E2,2.156515E3,4.6461115E2,2.7180298E2,2.1018654E1,4.8157772E1,4.963991E2,2.1582576E2,8.401664E2,1.0830998E4,1.62139E4,8.337838E2,1.348997E2,1.64383E3,5.126849E2,1.3243167E2,3.3217947E2,2.4204079E2,2.9762182E1,7.388565E0,1.363009E1,4.7069862E1,1.0879097E0,2.947562E2,2.0164293E2,4.772278E1,1.6810298E2,1.3612733E2,7.04039E2,6.1222607E3,4.7087373E3,7.568673E3,8.645229E3,1.5557378E2,6.7821E2,2.6174426E0,1.3228227E2,3.6488705E2,1.278943E3,1.6951302E2,3.4317184E2,6.2485685E0,1.261831E2,1.6924289E2,1.629366E2,3.9455395E1,2.0258539E2,2.5135933E1,4.6262493E0,3.5210052E0,3.8675597E0,1.2061689E1,1.5683998E0,1.3148555E0,4.5755005E1,1.5165587E2,1.4310031E2,1.9795943E2,3.6834998E0,7.48159E0,4.024119E1,1.6578398E2,2.3189952E0,1.3002853E2,6.098795E0,6.829481E2,2.1090923E1,4.7998438E3,1.3224167E3,1.614621E3,3.0941162E3,7.289126E3,2.7954666E2,7.6208477E3,1.0243806E3,5.605283E0,1.4996849E2,5.6816864E2,1.1004138E2,1.0016253E0,1.6158173E0,4.6382275E1,8.5899994E1,3.0551147E2,5.937558E1,3.216823E2,9.572606E2,7.950788E1,9.0005135E1,2.4914816E2,9.402369E1,3.6325724E0,2.615996E0,1.1143952E1,1.1503915E2,2.637542E1,1.4286746E2,5.9390244E1,1.0354635E2,2.1268888E1,1.8186504E1,1.914389E2,1.1146488E1,2.282045E1,2.3154838E0,2.855124E0,1.7711251E0,1.3660513E0,2.1549537E0,2.8171039E0,1.0504558E0,1.0531475E1,1.5302147E0],"tree_param":{"num_deleted":"0","num_feature":"56","num_nodes":"123","size_leaf_vector":"0"}},{"base_weights":[9.170768E-3,3.615005E-2,-2.1670847E-1,-1.0715005E-1,9.518783E-2,1.3374992E-1,-3.149781E-1,-3.3569628E-1,4.104621E-2,1.3543132E-1,-1.1980933E-1,-1.1166025E-1,2.895596E-1,-1.7327206E-1,-6.229757E-1,-5.347798E-1,-2.2681254E-1,1.9924967E-1,-2.1726705E-1,1.9126335E-1,-4.8416626E-2,-1.7761694E-1,2.7380362E-1,1.7785716E-1,-3.8607264E-1,4.2363897E-1,-1.3258101E-1,-2.3092183E-1,3.558188E-1,-9.606443E-1,-3.6867827E-1,-8.6876774E-1,-4.1115445E-1,-1.8743142E-1,-5.424812E-1,-7.481143E-3,3.5363483E-1,-1.6321641E-1,-8.437844E-1,5.017863E-2,4.0374833E-1,7.475718E-2,-2.0230684E-1,-1.2230824E-1,-5.2337104E-1,4.225158E-1,3.2853775E-2,3.8630176E-2,8.222546E-1,2.4371257E-1,-5.149151E-1,4.6011367E-1,-8.2705635E-1,2.2908069E-1,-5.060165E-1,-5.6991076E-1,-1.5137261E-1,-9.100325E-1,4.142239E-1,-1.122319E0,-5.94145E-1,-6.258062E-2,-7.383245E-1,-9.908037E-1,-3.114222E-1,-3.5886115E-1,-1.0958503E0,-3.3023262E-1,-1.1144441E-1,-4.1998282E-1,-1.0077045E0,2.3234664E-2,-6.4930546E-1,4.6778196E-1,9.1926455E-2,-6.198092E-2,-3.3325243E-1,-6.4805156E-1,-1.3190454E0,2.2276653E-1,-2.8972223E-2,6.1906326E-1,1.682691E-1,-1.6241623E-2,2.773535E-1,-2.8101537E-1,5.8944523E-2,-3.5698813E-1,2.2117216E-2,-1.953791E-1,-6.138015E-1,2.744527E-1,8.207631E-1,-3.2333943E-1,1.3184878E-1,1.4536588E0,-4.0950324E-2,2.649879E-1,1.4846262E0,5.474789E-1,-4.1641566E-1,2.2482339E-1,-5.8445513E-1,2.9475954E-1,6.2674713E-1,-1.0239313E0,3.3530354E-1,5.942036E-1,-2.2214136E-1,-6.2122613E-1,-2.0744335E-2,-4.1877615E-1,-9.28219E-1,-2.3664585E-1,1.7472197E-1,-1.7399715E0,-5.6912627E-2,6.7941844E-1,2.529724E-1,-8.862912E-1,-1.4668419E0,-1.503335E-1,-7.19307E-1,2.1961264E-1,-2.811624E-1,-4.721142E-1,-1.0065683E0],"categories":[],"categories_nodes":[],"categories_segments":[],"categories_sizes":[],"default_left":[true,true,true,true,true,true,true,true,true,true,true,true,true,true,true,true,true,true,true,true,true,true,true,true,true,true,true,true,true,true,true,true,true,true,true,true,true,true,true,true,true,true,true,true,true,true,true,true,true,true,true,true,true,true,true,true,true,true,true,true,true,true,true,false,false,false,false,false,false,false,false,false,false,false,false,false,false,false,false,false,false,false,false,false,false,false,false,false,false,false,false,false,false,false,false,false,false,false,false,false,false,false,false,false,false,false,false,false,false,false,false,false,false,false,false,false,false,false,false,false,false,false,false,false,false,false,false],"id":11,"left_children":[1,3,5,7,9,11,13,15,17,19,21,23,25,27,29,31,33,35,37,39,41,43,45,47,49,51,53,55,57,59,61,63,65,67,69,71,73,75,77,79,81,83,85,87,89,91,93,95,97,99,101,103,105,107,109,111,113,115,117,119,121,123,125,-1,-1,-1,-1,-1,-1,-1,-1,-1,-1,-1,-1,-1,-1,-1,-1,-1,-1,-1,-1,-1,-1,-1,-1,-1,-1,-1,-1,-1,-1,-1,-1,-1,-1,-1,-1,-1,-1,-1,-1,-1,-1,-1,-1,-1,-1,-1,-1,-1,-1,-1,-1,-1,-1,-1,-1,-1,-1,-1,-1,-1,-1,-1,-1],"loss_changes":[1.9391759E2,2.404915E2,1.1697043E2,2.809408E2,1.7420248E2,2.8489845E1,1.1563693E2,7.060611E1,2.0570396E2,1.7407874E2,7.22854E1,2.3087507E1,2.5837452E1,5.5525093E1,7.136914E1,4.724298E1,2.6140335E1,9.963175E1,6.460854E1,3.899418E2,7.4909485E1,5.2883774E1,1.4567572E1,1.2678797E1,1.2221058E1,1.6161701E1,1.5048025E1,4.4130234E1,1.3609983E1,2.0557495E1,5.4047256E1,2.0813553E1,2.9801071E1,2.0345078E1,1.2890144E1,2.634388E1,5.33423E1,3.0298836E1,1.3248451E1,1.0681271E2,2.6306427E2,4.047722E1,3.6141327E1,8.0954575E1,1.1196236E1,1.4607449E1,5.557139E0,1.32968235E1,8.879507E0,5.440684E0,6.5136986E0,9.094612E0,2.668404E0,9.498845E0,3.0456667E0,1.6468285E1,3.70084E1,5.7117867E0,7.174036E0,1.8819885E1,6.1004257E0,1.6260212E1,1.4982491E1,0E0,0E0,0E0,0E0,0E0,0E0,0E0,0E0,0E0,0E0,0E0,0E0,0E0,0E0,0E0,0E0,0E0,0E0,0E0,0E0,0E0,0E0,0E0,0E0,0E0,0E0,0E0,0E0,0E0,0E0,0E0,0E0,0E0,0E0,0E0,0E0,0E0,0E0,0E0,0E0,0E0,0E0,0E0,0E0,0E0,0E0,0E0,0E0,0E0,0E0,0E0,0E0,0E0,0E0,0E0,0E0,0E0,0E0,0E0,0E0,0E0,0E0,0E0,0E0],"parents":[2147483647,0,0,1,1,2,2,3,3,4,4,5,5,6,6,7,7,8,8,9,9,10,10,11,11,12,12,13,13,14,14,15,15,16,16,17,17,18,18,19,19,20,20,21,21,22,22,23,23,24,24,25,25,26,26,27,27,28,28,29,29,30,30,31,31,32,32,33,33,34,34,35,35,36,36,37,37,38,38,39,39,40,40,41,41,42,42,43,43,44,44,45,45,46,46,47,47,48,48,49,49,50,50,51,51,52,52,53,53,54,54,55,55,56,56,57,57,58,58,59,59,60,60,61,61,62,62],"right_children":[2,4,6,8,10,12,14,16,18,20,22,24,26,28,30,32,34,36,38,40,42,44,46,48,50,52,54,56,58,60,62,64,66,68,70,72,74,76,78,80,82,84,86,88,90,92,94,96,98,100,102,104,106,108,110,112,114,116,118,120,122,124,126,-1,-1,-1,-1,-1,-1,-1,-1,-1,-1,-1,-1,-1,-1,-1,-1,-1,-1,-1,-1,-1,-1,-1,-1,-1,-1,-1,-1,-1,-1,-1,-1,-1,-1,-1,-1,-1,-1,-1,-1,-1,-1,-1,-1,-1,-1,-1,-1,-1,-1,-1,-1,-1,-1,-1,-1,-1,-1,-1,-1,-1,-1,-1,-1],"split_conditions":[8.925032E0,-6.95E-1,4.75E-1,5E-1,9.15E-1,1.585E0,5E-1,-2.4512291E1,-1.455E0,3.2150002E0,2.605E0,5E-1,3.3249998E0,5E-1,2.1550002E0,1.885E0,2.565E0,-9.45E-1,2.9050002E0,1.835E0,5E-1,2.9650002E0,1.025E0,-1.3181608E1,5.115E0,5E-1,2.2515E3,-2.895E0,1.25E-1,8.55E-1,-1.4174246E1,5E-1,2.605E0,-1.3594409E2,-7.95E-1,3.275E0,2.855E0,2.5549998E0,5E-1,5.715E0,6.75E-1,6.205E0,6.315E0,2.0149999E0,2.2820488E1,3.295E0,1.955E0,-8E-2,-2.975E0,5E-1,-4.65E-1,1.855E0,2.3815E3,-1.7610328E0,5E-1,2.5549998E0,5E-1,2.295E0,9.788494E0,1.755E0,8.85E-1,2.8238482E1,2.8103325E1,-2.9724112E-1,-9.342666E-2,-1.0765835E-1,-3.287551E-1,-9.906979E-2,-3.3433326E-2,-1.2599485E-1,-3.0231136E-1,6.9703995E-3,-1.9479164E-1,1.4033459E-1,2.7577939E-2,-1.8594278E-2,-9.9975735E-2,-1.9441548E-1,-3.9571366E-1,6.6829965E-2,-8.691668E-3,1.8571898E-1,5.048073E-2,-4.872487E-3,8.320605E-2,-8.4304616E-2,1.7683357E-2,-1.0709644E-1,6.6351653E-3,-5.861373E-2,-1.8414044E-1,8.233581E-2,2.4622895E-1,-9.7001836E-2,3.9554637E-2,4.3609765E-1,-1.22850975E-2,7.949637E-2,4.4538787E-1,1.6424368E-1,-1.24924704E-1,6.744702E-2,-1.7533654E-1,8.8427864E-2,1.8802415E-1,-3.071794E-1,1.0059107E-1,1.7826109E-1,-6.664241E-2,-1.8636784E-1,-6.223301E-3,-1.2563285E-1,-2.7846572E-1,-7.099376E-2,5.2416593E-2,-5.219915E-1,-1.707379E-2,2.0382555E-1,7.589172E-2,-2.6588738E-1,-4.400526E-1,-4.510005E-2,-2.157921E-1,6.588379E-2,-8.434872E-2,-1.4163427E-1,-3.019705E-1],"split_indices":[7,5,5,54,5,6,54,12,0,6,0,30,6,44,6,6,0,5,0,6,19,6,5,10,1,51,14,0,4,5,10,27,0,8,5,6,6,6,27,1,5,1,1,6,11,0,6,4,0,51,5,6,14,9,42,6,47,6,7,6,5,11,11,0,0,0,0,0,0,0,0,0,0,0,0,0,0,0,0,0,0,0,0,0,0,0,0,0,0,0,0,0,0,0,0,0,0,0,0,0,0,0,0,0,0,0,0,0,0,0,0,0,0,0,0,0,0,0,0,0,0,0,0,0,0,0,0],"split_type":[0,0,0,0,0,0,0,0,0,0,0,0,0,0,0,0,0,0,0,0,0,0,0,0,0,0,0,0,0,0,0,0,0,0,0,0,0,0,0,0,0,0,0,0,0,0,0,0,0,0,0,0,0,0,0,0,0,0,0,0,0,0,0,0,0,0,0,0,0,0,0,0,0,0,0,0,0,0,0,0,0,0,0,0,0,0,0,0,0,0,0,0,0,0,0,0,0,0,0,0,0,0,0,0,0,0,0,0,0,0,0,0,0,0,0,0,0,0,0,0,0,0,0,0,0,0,0],"sum_hessian":[3.181847E4,2.8424281E4,3.3941897E3,8.293348E3,2.0130934E4,7.432347E2,2.6509548E3,3.2617917E3,5.0315557E3,1.6957225E4,3.173709E3,2.8873773E2,4.5449695E2,1.8166832E3,8.342717E2,1.151844E3,2.1099478E3,3.120587E3,1.9109688E3,1.3007108E4,3.950116E3,2.7677715E3,4.0593747E2,1.4067313E2,1.4806462E2,3.449357E2,1.09561264E2,1.6386945E3,1.7798872E2,3.5719415E2,4.770776E2,3.0954514E2,8.422988E2,1.8773353E3,2.3261243E2,1.3345276E3,1.7860593E3,1.7603602E3,1.5060854E2,7.817632E3,5.189477E3,2.1943062E3,1.7558097E3,2.387248E3,3.805234E2,2.5054793E2,1.5538956E2,1.16551285E2,2.4121845E1,2.4995321E1,1.2306929E2,3.3577542E2,9.160289E0,5.585441E1,5.3706856E1,3.10286E2,1.3284084E3,7.206929E0,1.707818E2,2.464256E2,1.1076855E2,2.616112E2,2.154664E2,2.5330411E2,5.6241016E1,7.839492E2,5.834961E1,6.5085254E2,1.2264828E3,1.8563536E2,4.6977066E1,1.2744977E3,6.0029877E1,1.2430857E3,5.429737E2,1.1042687E3,6.5609143E2,1.0834925E2,4.2259293E1,2.457423E3,5.360209E3,2.709952E3,2.4795251E3,1.5148232E3,6.7948303E2,1.3492412E3,4.065684E2,9.088947E2,1.4783534E3,8.292271E1,2.9760068E2,1.8387483E2,6.6673096E1,3.330149E1,1.22088066E2,5.28642E0,1.1126486E2,1.3860655E1,1.026119E1,1.7235044E1,7.760276E0,1.0383269E1,1.1268602E2,1.6992445E2,1.6585095E2,7.9353333E0,1.2249559E0,3.0697512E1,2.5156897E1,4.317614E1,1.0530714E1,2.1975993E2,9.052608E1,1.0532574E3,2.7515097E2,3.1261668E0,4.0807624E0,6.3362423E1,1.0741938E2,1.483593E2,9.80663E1,2.4850912E1,8.591763E1,1.1418783E2,1.4742339E2,1.0952836E2,1.0593804E2],"tree_param":{"num_deleted":"0","num_feature":"56",